RESERVED,0.029153015,0.0418075,0.04942814,0.04863943,-0.008669566,0.004802026,0.0065605044,0.04673189,-0.03852085,0.033645406,0.01324036,0.015763354,0.07682345,0.00782223,-0.052274838,-0.07448635,-0.0679482,-0.04270561,-0.037210807,0.028671693,-0.020920679,0.0559247,0.0734643,-0.020911861,-0.049981847,-0.026113793,0.052337863,0.016766798,-0.041372076,-0.048453998,0.04498817,0.04925038,-0.028726552,-0.0043577533,-0.05463618,-0.002529608,-0.05526302,-0.05585722,-0.022942219,0.0092806,0.046939984,-0.062127855,-0.02896763,0.0817602,0.0021357574,-0.08041165,-0.05478201,-0.005045917,-0.0027798396,0.009833407,-0.07560524,0.009607423,0.03878553,0.058953382,-0.040801335,-0.006516408,0.00049740076,-0.014918733,-0.012383617,-0.005917512,0.047147904,-0.06350453,-0.03467368,-0.022302948,0.0613356,0.09293618,0.026904538,0.021261906,0.0078442115,-0.06423638,-0.049052022,0.003772974,-0.01847905,-0.0012140125,0.0143444985,0.062353536,-0.0648602,-0.0904215,-0.01619345,-0.0028984211,0.02106911,0.020851646,0.024468642,-0.09594112,-0.052706398,-0.0038954727,-0.0013038665,0.01491325,0.011994455,0.015994597,-0.06657343,0.031935778,0.01773633,-0.048331846,-0.0069433004,0.012748208
UNK,-0.39210188,-0.46567887,0.21441485,-0.44746724,-0.4316764,0.45032,0.6727139,-0.5020953,-0.43305808,0.12317242,0.2232153,0.4943116,-0.5153453,0.49229175,-0.4097867,-0.43207815,-0.6013232,-0.4126177,0.44709662,-0.49743354,-0.5647899,0.56902975,-0.5500595,-0.3988337,-0.20777358,-0.42744398,-0.57566977,0.53673476,0.62076557,0.4877447,-0.485988,0.3124067,0.40519217,0.56862175,0.42790455,-0.54086125,-0.034159612,0.64901096,0.5593338,-0.5590757,0.47786313,-0.4987042,0.47150517,-0.523555,-0.48973954,0.54552203,-0.29855132,0.38680285,0.44064647,0.5885755,-0.44771475,-0.5314511,0.51410985,0.5059307,0.27180248,0.45472968,-0.32317883,-0.50157934,0.53806585,0.4071217,-0.500186,0.3825662,-0.36996624,-0.6256728,0.4161684,-0.5890525,-0.5821097,-0.4259969,0.49749225,0.5213697,-0.7290281,-0.5016327,0.33669025,0.6018225,0.53271824,-0.35522443,0.6664223,-0.8715822,-0.31864843,-0.07377912,-0.53172314,-0.53863186,0.632842,0.37530828,-0.4980631,0.76618755,-0.5443187,0.5523287,-0.44619912,0.56951416,0.3830158,-0.4895332,0.48749518,0.4934496,0.3749047,0.5868296
i,0.0911294,-0.36115354,-0.22619547,-0.17294675,-0.33570063,0.14812654,0.51621556,-0.38576603,-0.2728974,-0.3389182,-0.58474874,0.47020867,-0.25753284,0.31597078,-0.43486428,-0.18225048,-0.4689645,0.16316189,0.39759347,-0.552319,-0.78579676,0.490493,-0.229079,-0.03948327,-0.0013869628,-0.079114944,-0.3371091,0.2301149,0.63676447,0.38325217,-0.32199132,0.11810805,-0.30144274,0.31267542,0.31855136,-0.5972995,0.3981344,0.70856005,0.5455662,-0.55215824,0.2696035,-0.33449262,0.35658866,-0.4716976,-0.46630433,0.6712133,-0.27806526,0.1346439,0.26478067,0.6796596,-0.087601095,-0.5709287,0.49472934,0.46198756,0.17064632,0.3629362,-0.03407909,-0.08323167,0.48975402,0.25856403,-0.38407367,-0.053015206,-0.034147315,-0.4576924,0.14355668,-0.46519977,-0.49643815,-0.04821957,0.3900225,0.4043959,-0.5510213,-0.38090596,0.08368104,0.5204381,0.32045513,-0.291598,0.70285606,-0.7013587,-0.11600225,-0.34884936,-0.5130757,-0.55793494,0.5145845,0.3971112,-0.1162612,0.82274675,-0.46633506,0.5279641,-0.07541662,0.37636515,-0.09069001,-0.06998068,0.34773886,0.31480014,0.051691823,0.40832424
to,-0.37953255,-0.24345472,0.22898385,-0.45627755,-0.2838207,0.1339064,0.27138916,-0.47197196,-0.08071862,-0.020928811,-0.12070766,0.3739133,-0.1589823,0.30805582,-0.14396918,-0.41004023,-0.32960188,-0.28939208,0.3576628,-0.40989012,-0.21632189,0.59707713,-0.7891379,-0.1621375,0.11758291,-0.46673238,-0.6515044,0.5282192,0.41474992,0.23167023,-0.30519715,0.05592478,0.32427472,0.57449937,0.55394477,-0.54098874,0.040751055,0.54788834,0.23836565,-0.49827674,0.24205872,-0.5147815,0.1148003,-0.12786376,-0.27622724,0.5880966,-0.11601725,0.3531729,0.13016191,0.34681696,-0.786477,-0.30726665,0.7185788,0.549643,-0.002036266,0.15740505,-0.04229866,-0.11476426,0.36501807,0.11832396,-0.49506497,0.039527684,-0.35982794,-0.50713545,0.358862,-0.54741096,-0.37003648,-0.450653,0.5562111,0.4384985,-0.66543823,-0.38831884,0.22761738,0.5646471,0.13927342,-0.08067083,0.710757,-1.1568086,-0.29972404,0.26317874,-0.37831056,-0.276774,0.6977047,0.12345815,-0.27450636,0.6396296,-0.45403564,0.67114055,-0.13385756,0.47359657,-0.05651188,-0.57971317,0.4659688,0.14338914,0.27704257,0.5105447
you,-0.36037093,-0.179352,0.2791311,-0.7058449,-0.5013471,0.36446524,0.46738625,-0.67724574,-0.20101885,-0.3703451,-0.8496382,0.17424294,-0.28956616,0.10866689,-0.20449783,-0.35981983,-0.2992822,-0.2595581,0.746277,-0.4650607,-0.4180459,0.7088272,-0.4222202,-0.16339283,0.04626242,-0.2466304,-0.2685047,0.38484728,0.3547408,0.41957527,-0.54843426,-0.098593205,-0.2595762,0.38987562,0.5642233,-0.6390139,0.28131548,0.64226335,0.6064468,-0.42551625,0.43762502,-0.14788552,0.2828554,-0.10730879,-0.38077226,0.42335784,0.022334665,0.13723801,0.06474986,0.51860934,-0.5028539,-0.48621404,0.7480681,0.6570592,0.018666878,0.20276757,0.29612812,0.24793293,0.42076302,0.1478539,-0.36993065,0.018993098,-0.30718058,-0.5834935,0.11515145,-0.49437952,-0.6605822,-0.16627713,0.19554919,0.59868765,-0.5837121,-0.21430585,-0.092539236,0.7773229,0.20480907,0.076784864,0.38824296,-0.7486317,0.23746821,-0.14184639,-0.22995147,-0.48058715,0.7150902,0.36965954,-0.41987514,0.44295034,-0.63006467,0.491881,-0.20562428,0.47939542,-0.5168986,-0.43265885,0.49030396,0.02267025,0.30588654,0.252968
a,-0.58175206,-0.35181737,0.22403109,-0.4728375,-0.27091387,0.29257524,0.5246155,-0.4080299,-0.32160097,0.0874573,0.23420323,0.58071655,-0.28793955,0.19338435,-0.28029963,-0.21924384,-0.57950497,-0.3198102,0.30886063,-0.47202307,-0.3937932,0.6680889,-0.35703617,-0.22446343,-0.036256917,-0.5921326,-0.010846868,0.43163192,0.084063455,0.6814761,-0.27428398,0.2080005,-0.020243626,0.28442958,0.3965822,-0.5812844,-0.27065474,0.737564,0.3845662,-0.4321385,0.04552208,-0.31298128,0.056387916,-0.24544673,-0.7782441,-0.05793505,-0.33596656,0.115096726,-0.0061328933,0.3997038,-0.33933294,-0.43815047,0.6317457,0.2411032,-0.13753612,0.42084628,-0.07864973,-0.4066988,0.6061008,-0.021660239,-0.38927475,0.13969299,-0.10925994,-0.6987824,0.24832006,-0.3925323,-0.56466925,-0.8188277,0.3411259,0.24721526,-0.6043787,-0.32361847,0.061375003,0.50598717,0.3655645,-0.058647037,0.60641664,-0.067644715,-0.021742998,-0.038466007,0.12623596,-0.40426192,0.38833907,0.7231954,-0.41237873,0.5784383,-0.19374622,0.72456706,-0.47715268,0.44009608,0.55250907,-0.66371584,-0.040426545,0.462055,0.32982108,0.3098266
the,-0.49718606,-0.17603573,0.63920313,-0.26051927,-0.52394164,0.5942307,0.5531452,-0.03292571,-0.37315646,0.29461157,0.39109403,0.32330582,-0.3980907,0.35633656,-0.09623045,0.09314094,-0.16656575,-0.26589277,0.52405816,-0.47775745,-0.2720136,0.6175859,-0.043961614,-0.3063764,-0.2604955,-0.42020297,-0.3008828,0.21076693,0.42876434,0.27145958,-0.8845939,-0.32457536,0.5272921,0.28156745,0.17105684,-0.537818,0.078781046,0.3900931,0.61074424,-0.7118584,0.2115826,-0.21534581,0.56720597,-0.471436,-0.39226818,0.37513894,0.082685955,0.69787526,0.114936,0.6769352,-0.5179843,-0.63215256,0.21254544,0.69012684,0.15886049,0.22316056,-0.13427526,-0.48442206,0.051255956,0.16303878,-0.5318234,0.34398928,-0.3303444,-0.1766098,0.02651745,-0.5805559,-0.36525667,-0.38886607,0.5329762,0.66085637,-0.6587752,-0.0022697598,0.4887425,0.48137486,0.25930887,-0.37530285,0.6268048,-0.6344397,-0.07752666,-0.09639827,-0.4198063,-0.39490238,0.5313022,0.5611371,-0.4570926,0.568752,-0.4239067,0.3581938,-0.26377094,0.60976136,0.45117265,-0.28882077,0.58904296,0.3694253,0.39164886,0.32664716
u,0.24614309,-0.063724466,-0.2509116,-0.106098235,-0.058897294,-0.080607444,0.5820471,-0.11642317,-0.2250027,-0.3330919,0.28109625,0.5732757,-0.27432433,0.64208657,0.09767291,-0.27712727,-0.4520877,0.008534819,-0.5962091,-0.60062194,-0.4388286,0.38521186,-0.55154,-0.36683726,-0.3429772,-0.24711134,-0.27880603,0.4660542,0.32390442,0.27735037,-0.1523315,0.5111344,-0.29871523,0.46203643,-0.22882532,-0.33145306,-0.24573188,0.7917092,0.29386076,-0.48546308,0.29351866,-0.8783677,0.38302654,-0.7402933,-0.34060863,0.55246985,-0.06142783,-0.016608708,0.33331382,0.4482883,-0.2640987,0.000981763,0.32731265,0.020274322,0.6645503,0.65643865,-0.7617438,-0.6926155,0.22913912,0.22347908,-0.77510476,0.11741856,0.27950507,-0.3082191,-0.07241566,-0.4677012,-0.14462878,-0.66079974,0.56350297,0.28279695,0.024094488,-0.33451807,0.5967665,0.20637704,0.09978746,-0.8762742,0.54280114,-0.4057258,0.3286332,0.420532,-0.5860559,-0.4707396,0.08887869,0.7717726,-0.108685486,0.47970092,-0.5275975,0.61483705,-0.3570118,0.4134827,0.4128719,-0.23420416,0.12717019,0.16768092,-0.010414809,0.72198147
and,-0.35251635,-0.2493749,0.15689552,-0.21571377,-0.451949,0.2909092,0.58261335,-0.24193385,-0.36465758,-0.12713295,-0.12535469,0.13896959,-0.2785939,0.21661714,0.054376736,-0.39842817,-0.57336056,-0.08079043,0.6045299,-0.35313535,-0.6290114,0.710329,-0.36400256,-0.11082035,-0.011392295,-0.49023443,-0.14063792,0.15565631,0.44857854,0.2491522,-0.40542448,0.0749108,-0.17240635,0.094335265,0.4436892,-0.59627926,-0.037387475,0.39753723,0.5006207,-0.47770655,0.28179753,-0.14295949,0.10044627,-0.22267406,-0.69493294,0.5331984,-0.32791328,0.68971634,0.17285836,0.38532773,-0.3426109,-0.71618354,0.12544236,0.4477274,0.23998564,0.40425858,-0.0004248917,-0.04235614,0.38381404,0.3779371,-0.5791323,0.3455647,-0.41023234,-0.24826083,0.17263614,-0.64318126,-0.38308612,-0.21992558,0.42710462,0.50572264,-0.41083065,-0.7125038,0.12843129,0.5797021,-0.018811196,-0.50308126,0.46295947,-0.7297151,-0.37297326,-0.3908849,-0.57810616,-0.5893606,0.62531525,0.5502369,-0.47797668,0.7375424,-0.3410841,0.25354996,-0.24786168,0.21509384,-0.032139733,-0.25064775,0.26947895,0.24365464,0.102331966,0.41109395
in,0.024987608,-0.34709716,0.32774085,-0.52525914,-0.45798957,0.56057364,0.28790903,-0.5349915,0.025054134,0.24102744,0.26516324,0.29856288,-0.29240048,0.41726604,-0.32180133,0.25287083,-0.5960156,-0.30181068,0.5612097,-0.40048373,-0.106414184,0.52647007,-0.042580113,-0.010079558,-0.29077598,-0.22796898,-0.11959003,0.2714844,0.5532945,0.26572394,-0.49588978,0.17741644,0.36342737,0.062451154,-0.08560931,-0.15127672,-0.40685397,0.4023635,0.4972388,-0.6139446,0.52059096,-0.20055732,0.3517877,-0.17190377,-0.53025836,0.3431533,-0.28189567,0.42362702,0.31051892,0.3815839,-0.055598035,-0.8404391,0.031492263,0.62129223,-0.38203907,0.49167866,0.003362529,-0.3918492,0.49337402,0.14700446,-0.4064659,0.28538215,-0.40926433,-0.17599052,0.07949939,-0.23104078,-0.6531254,-0.3252728,0.48801392,0.27219248,-0.58696127,-0.19948283,0.23182994,0.35566035,0.45619652,-0.16527218,0.4571167,-0.4912043,-0.29882225,-0.02113825,-0.6410991,-0.36305484,0.5989499,0.5132121,-0.2761115,0.42233226,-0.18607177,0.3524865,-0.39315984,0.53382,0.47371316,-0.4911682,0.2666995,0.959206,0.2527486,0.3466814
is,-0.51194614,0.12448489,0.5733373,-0.12250118,-0.5763869,0.42086154,0.54755205,-0.24073508,-0.002300039,0.17754498,0.76659226,-0.05101441,-0.49848682,0.14884754,-0.1553213,0.064667225,-0.41811812,-0.5225726,0.31266174,-0.54082316,-0.27482176,0.49753097,-0.24506728,-0.3898553,-0.5284195,-0.35955557,-0.46590698,0.30468857,0.79245704,0.46667913,-0.4691637,0.113803044,0.58010614,0.589067,-0.0012259856,-0.014247678,0.10798426,0.90984774,0.14111812,-0.36446327,0.28425214,-0.22550327,0.51912487,-0.25371596,-0.8132806,0.064487875,-0.2392547,0.81934583,0.31205067,0.28322893,-0.33504277,-0.18661779,0.20629182,0.32957172,-0.14310053,0.19917324,-0.14731152,-0.4603485,0.5728588,0.113646135,-0.41996375,0.3906836,-0.19880302,-0.57206607,-0.036882646,-0.66591,-0.26241153,-0.26860115,0.39750558,-0.029222578,-0.18405317,-0.18377392,0.6073112,0.4904612,0.20118353,-0.13219872,0.53460425,-0.30705693,-0.20295718,-0.091638595,-0.507532,-0.37677485,-0.1404795,0.09161408,-0.5319668,0.36781085,-0.54345345,0.13171336,-0.59728485,0.30125016,0.33260834,-0.44623435,0.42353764,0.4429529,0.77331734,0.06850092
me,-0.24634619,-0.090253405,-0.5150352,-0.65445834,-0.30522662,0.18698497,-0.06932591,-0.7213736,-0.43468457,-0.11314497,-0.040197402,0.7677364,-0.058589116,0.45488468,-0.061901763,-0.14527218,-0.11522352,0.27225855,-0.016819075,-0.5531507,-0.65234,0.8647198,-0.1802158,-0.4840966,0.07907385,-0.14069651,-0.29748455,0.36783183,0.19153821,0.032668788,-0.26795566,0.36282462,-0.24291873,0.45526895,0.23789696,-0.2925134,-0.3408144,0.8026735,-0.04035428,-0.32081288,0.65719426,-0.18251993,0.51895785,-0.31203547,-0.7936487,0.3119733,-0.5044794,0.24902579,0.049244903,0.30983102,-0.5644743,-0.2728448,0.52812964,0.49108723,0.30993018,0.29079768,-0.51493025,-0.2665957,0.07228781,0.016890097,-0.50066835,0.2958262,-0.1972767,-0.5523387,-0.10879323,-0.5924032,-0.6441666,-0.22072364,0.8987982,0.5049756,-0.26905295,-0.49760658,-0.04118423,0.43394944,0.031699106,-0.66925955,0.12702817,-0.48416522,0.26709944,0.33031285,-0.105893075,-0.33267298,0.8702499,0.2894469,-0.57945323,0.41417897,-0.76220214,0.30918312,-0.4532954,0.084748045,-0.34724906,-0.51518315,0.39573854,0.027474135,-0.03587933,0.5186939
my,0.10104556,-0.17255698,-0.0041061193,-0.31943345,-0.3818074,0.25327393,0.49906963,-0.38115165,0.26203635,0.47147876,0.24755138,0.13067253,-0.7320039,0.0155505985,-0.25002366,-0.3523901,-0.3383182,0.00055072433,0.665499,-0.18922332,-0.2961493,0.91191256,0.026446037,-0.17978416,-0.3003585,0.0779212,0.15805669,0.38537055,0.72446525,0.36737594,-0.00026015192,0.64095247,0.304739,0.47940642,-0.16874489,-0.3553769,-0.3009884,0.45350504,0.44739056,-0.33792627,0.43272346,-0.26446244,0.6010622,-0.44532388,-0.8027814,0.22048411,-0.3641351,0.64190936,0.2323409,0.32031032,-0.28762168,-0.32607156,0.47315788,0.4241246,0.14924079,0.30779898,-0.37710625,0.26155287,0.5140866,0.38317066,-0.5472723,0.2944109,-0.09427714,-0.32654387,0.36151746,-0.3631521,-0.73289293,-0.062056214,0.43568748,0.18380305,-0.28979045,-0.3135367,0.018065002,0.46768117,0.025865972,-0.029965576,0.16823113,-0.55348766,-0.2466401,-0.48216435,-0.53648055,-0.375191,0.546204,0.36653176,-0.4201838,0.46411714,-0.46852297,0.5082189,-0.13752604,0.24247321,-0.38597593,0.15599132,0.6606512,0.75201046,0.15607055,0.32498395
for,-0.41261727,-0.35595864,0.3011113,-0.6093901,0.021203801,0.4363758,0.6806977,-0.30125576,-0.5798322,0.14048283,0.16618317,0.20346835,-0.10909816,-0.057915166,-0.24660757,-0.12883914,-0.07638094,-0.16892794,0.31869102,-0.25231022,-0.08389403,0.27119607,-0.19221917,-0.11417025,-0.18438871,-0.688942,-0.39409208,0.2739168,0.0054827332,0.68567014,-0.31888407,-0.19729905,0.35209152,0.61480415,0.030512229,-0.56016505,-0.014892727,0.64603424,0.44471622,-0.33641022,0.34518328,0.27250755,0.9182764,-0.11898899,-0.35288608,0.29415977,-0.2728373,0.53107446,-0.10193046,0.4385296,-0.69268316,-0.3604446,0.53440243,0.49478704,0.16125232,0.10579194,-0.41754228,-0.4475083,0.40551528,-0.09915002,-0.2595855,0.13471252,-0.22678232,-0.40354145,0.39782667,-0.52196324,-0.5536239,-0.31803706,0.29788965,0.6446893,-0.08007848,-0.25770694,0.17782688,0.43746224,0.05361983,-0.39519146,0.6807643,-0.015114084,-0.21907496,0.11580616,-0.12388903,-0.35610285,0.7810294,0.26680925,-0.24407877,0.33352023,-0.05089481,0.45203733,-0.5470444,0.07116109,0.33112463,-0.32041985,0.57231927,0.32477692,0.6802805,0.5890678
your,-0.67640656,-0.18948942,0.31198478,-0.16157478,-0.5106525,0.4153613,0.4620707,-0.30441266,-0.27847257,0.4889771,0.15399982,-0.0033161938,-0.59255093,-0.22264585,-0.12949927,-0.55415636,-0.22209682,-0.1973029,0.856624,-0.25361305,-0.5135548,0.25748426,-0.44666338,-0.36073166,0.08378071,-0.15925732,-0.44994724,0.460456,0.5996118,0.1856569,-0.07129979,0.14877462,0.6139296,0.3931762,0.13873848,-0.66523796,-0.19031201,0.46971416,0.39539227,0.28018042,0.2730115,0.39103147,0.30070502,-0.16323775,-0.30797338,0.5201636,0.12724921,0.24631813,0.06947702,0.026513617,-0.5126411,-0.5643699,0.43529448,0.54393345,0.020533152,-0.34193546,-0.3703242,-0.19319203,0.24571209,0.17946066,-0.09318045,-0.041361153,-0.5028392,-0.5839377,0.3383757,-0.77004707,-0.60368854,0.019384086,0.031815786,0.39885905,-0.56101525,-0.32587022,0.2996118,0.5875939,0.08443305,-0.078244135,0.3054452,-0.66908044,-0.65545726,0.031961016,-0.047290906,-0.7725605,0.8086458,-0.066577956,-0.21134046,0.22261427,-0.9166243,0.35910073,-0.47644717,0.31755877,-0.14995202,-0.45967564,0.12964064,-0.012427002,0.5970791,0.17501765
it,-0.42448166,-0.4723987,0.5576262,-0.10087824,-0.122397855,0.068349905,0.37363994,-0.31755656,-0.035470128,-0.48378703,0.41909206,-0.2670539,-0.46801504,0.6435123,0.021152414,-0.09460577,-0.20612146,0.18662885,0.022302419,-0.45159745,-0.18996271,0.50643593,-0.5763215,-0.43044132,-0.27044758,-0.5422524,-0.38487533,-0.10284996,0.6103109,0.0831417,-0.40740865,-0.5134727,-0.31974015,0.44300827,0.5015099,-0.077051625,0.80674934,0.63551444,0.16117832,-0.18085642,0.035202354,-0.73251474,0.1134544,-0.102769084,-0.48431846,0.45028165,-0.3963591,0.32960218,0.32201552,0.30203986,-0.14528336,-0.45303306,0.2780286,0.57492,0.051897436,0.34092596,0.39359206,0.1366936,0.29789984,0.14219381,-0.42182043,0.38856912,-0.01148282,-0.58036697,0.30856353,-0.7110027,-0.1538356,-0.47702977,0.712364,0.41455787,-0.020507656,-0.097702414,0.55638796,0.36723998,0.22344464,0.032580063,0.31817603,-0.42926204,-0.31069463,-0.64638853,-0.6648321,-0.50011563,0.03976825,0.35624075,-0.2938457,0.59197426,-0.9210416,0.4065446,-0.71841496,0.04940641,0.1748994,-0.43638712,0.1433401,0.5315817,0.20304039,0.09432307
of,-0.39066273,0.21430439,-0.05256288,-0.38895714,-0.6094893,0.5324068,0.71333045,-0.12046781,-0.06673886,0.6107515,0.54716855,0.58747053,-0.59016526,0.41917282,-0.17739402,-0.08903697,-0.6741208,-0.28169334,0.3849583,-0.54992247,-0.5756069,0.5456733,0.05691034,-0.12985633,-0.029234335,-0.3603717,-0.05310253,0.54234904,0.7135743,0.11016091,-0.4912973,0.11622337,0.46725643,0.12199834,0.28271532,-0.42224574,-0.21157879,0.46547773,0.67737776,-0.44416457,-0.11880949,-0.14839903,0.4204741,-0.20435058,-0.62241054,-0.17746985,0.23543902,0.4287231,0.035902485,0.116426975,-0.3443395,-0.69782495,0.035015374,0.7175739,-0.01526513,0.2608797,-0.08445752,-0.42978477,0.37480766,0.2725348,-0.6678494,0.30848753,-0.40240508,-0.38502,0.47451895,-0.07123314,-0.47965762,-0.21116701,0.301227,0.40023977,-0.30624193,-0.0745466,0.102830745,0.7210096,0.38287973,-0.4371214,0.4803424,0.02134329,-0.032257184,-0.02484113,-0.25833195,-0.4184852,0.2914884,0.6730241,-0.50504625,0.43015638,-0.6342121,0.5899089,-0.423468,0.57792,-0.0012467206,-0.25135234,0.15421772,0.67742044,0.31212986,-0.24704356
call,-0.39332104,-0.4721579,0.5774687,-0.2212727,-0.3288949,0.2593785,0.27211535,-0.5873564,-0.8378197,0.3766203,0.5959907,0.16178714,-0.19635983,0.24519134,-0.42312467,-0.32514912,-0.081814945,-0.039488498,0.10656783,-0.20849484,-0.6301104,0.4090222,-0.032780048,-0.82629055,-0.47349155,-0.39534935,-0.8097362,0.38473958,0.11329071,0.5711247,-0.018163834,0.07765364,0.56730556,0.60774124,0.6348849,-0.17518273,-0.17077996,0.6471591,-0.07503049,0.1142697,0.17219184,-0.36670095,0.2894998,-0.45607558,-0.08564378,0.31427068,-0.3889255,-0.030350238,0.55023223,0.12544763,-0.61980474,-0.09317845,0.725356,0.070399456,0.30024472,-0.23205723,-0.7342875,-0.27164733,0.2786094,0.44580555,0.2770595,-0.18388815,-0.014935181,-0.8665613,-0.057691038,-0.54832125,-0.53295755,-0.45615193,0.21524784,0.39758468,-0.60314906,0.05940193,0.033190683,0.36113358,0.38957393,0.044990987,0.29351056,-0.08989975,-0.29801723,-0.1369744,0.30703372,-0.76010364,0.42277992,-0.016931925,-0.14569718,0.41771665,-0.56447864,0.46231216,-0.26475617,0.07298486,0.6238058,-0.444974,0.24217346,-0.29294854,0.26904088,0.54058725
have,-0.1783395,-0.27863806,0.42290848,-0.25897864,0.058532175,0.107452676,0.56218046,-0.09912239,-0.3281318,-0.40418342,-0.7833291,0.5647077,-0.118428394,0.15897068,-0.21175343,-0.55865943,-0.4959063,-0.40117705,0.07106137,-0.36285484,-0.32752305,0.68470263,-0.57345784,-0.28108114,0.0025421698,-0.3127076,0.12927203,0.26996404,-0.0033654869,1.0353171,-0.3600518,-0.07099303,-0.7095864,0.28662735,0.4010958,-0.7838338,0.1342355,0.34373212,0.65949833,-0.7004587,-0.14689112,-0.6057402,0.08242084,-0.4860713,-0.6488949,0.37457937,0.17882419,-0.106943816,0.13931029,0.5398707,-0.20882866,-0.3429959,0.5107137,0.32351753,0.1872279,0.49410966,0.45671487,0.1658769,0.40323246,0.053411465,-0.73846817,0.27427608,0.12279922,-0.3003431,0.061408184,-0.3284639,-0.25719735,-0.6193802,0.43453947,0.28687182,-0.6482719,-0.18024649,-0.06699249,0.5826374,0.2040951,-0.18005808,0.7271817,-0.52929777,0.35125324,-0.017801404,-0.28298438,-0.52707916,0.023483932,0.5873923,-0.25153682,0.5818001,-0.37743604,0.674458,0.0074944827,0.6796872,0.24321543,-0.3776637,-0.13413794,0.0723815,0.2869865,0.3943891
on,-0.81287,-0.32522577,0.24506764,-0.03744929,-0.54754186,0.5140138,0.33819953,-0.085439,-0.06385374,0.6440946,0.7051977,0.029599048,-0.67034405,0.088211074,-0.07576595,-0.1720555,-0.16225006,-0.2162483,0.3184621,-0.21500514,-0.44249147,0.28209445,0.15025164,-0.47454986,-0.26029631,-0.5356422,-0.43045884,0.1974572,0.33662367,0.34853745,-0.25190586,0.13861395,0.7716956,0.42232108,0.47097954,-0.47265875,0.08519771,0.4749025,0.40153491,-0.2021364,0.14000617,-0.02019997,0.42596543,-0.46856815,-0.20430185,0.42817816,-0.48678252,0.57276404,0.2767837,0.5008656,-0.6555064,-0.42289564,0.40571922,0.032393754,-0.27825236,-0.038056962,-0.64673376,-0.08863804,-0.025515176,0.42248768,-0.020904839,0.36179742,-0.41588414,-0.5056439,0.29513508,-0.39422148,-0.28926253,-0.2986906,0.69257724,0.6892685,-0.5842322,-0.31935194,0.17197157,0.27690965,-0.2183835,-0.1998379,-0.121367395,-0.34787026,-0.43796292,-0.2573527,-0.2226272,-0.15382561,0.4463877,0.21218506,-0.041531168,0.70743454,-0.29753673,0.59909606,-0.12971494,0.12414725,0.43975452,-0.2877701,0.21521938,0.45119756,0.41100323,-0.0044775605
2,-0.15668027,-0.26544175,0.044274718,-0.5134376,0.07028927,0.14719272,0.1122574,-0.47051728,-0.11025739,0.105488226,0.5971863,0.7401044,-0.28934303,0.265275,-0.28690118,-0.35944524,-0.60887474,-0.609602,-0.59723294,-0.38222522,0.02437047,0.22015321,-0.5267596,-0.12954253,-0.54624355,-0.34492734,-0.41895297,0.6185221,0.29997122,0.57388836,-0.45513934,0.9550203,0.3107372,0.4553084,-0.16448323,-0.30821866,-0.54370826,0.3920287,-0.25568455,-0.37872726,0.29778472,-0.40485898,0.42429742,-0.7703789,-0.22799827,0.82706535,-0.25559548,-0.1787644,0.15562293,0.48449016,-0.004298255,0.14987051,0.42332062,-0.30370808,0.39188847,0.18779789,-1.0462369,-0.8486989,0.18031402,0.0522736,-0.13759452,-0.013807446,0.05641578,-0.18974166,0.10959369,-0.31174657,-0.2860021,-0.59051365,0.46136332,0.039885134,0.3793515,-0.4353183,0.17646596,0.026084736,-0.12005694,-0.6265179,0.36747915,-0.30684045,-0.06826863,0.24205464,-0.11999598,-0.013796365,0.049658105,0.677364,-0.09691495,0.32098818,-0.29087245,0.32728416,0.055667654,-0.19119655,0.8050392,-0.44210488,0.25197864,0.7382506,0.68329686,0.4346359
that,-0.26481262,0.012004539,0.085832514,-0.4962328,-0.36701617,0.3740922,0.58776766,-0.09609593,-0.32190868,0.02687715,-0.39849937,0.40006182,-0.4340191,0.28852674,0.031425416,-0.08486703,0.23497418,-0.43533048,0.38950345,-0.8069296,-0.76834834,0.55520827,-0.42482337,-0.24987128,-0.59766,-0.58908874,-0.5412934,0.057948872,0.03943269,0.29407886,-0.6633845,-0.14647129,-0.12435864,0.24845852,0.34918928,-0.6029229,0.62697995,0.43298632,0.896008,-0.4552656,0.45916098,-0.42444772,0.29768458,-0.4261893,-0.36419815,0.17155789,0.008046195,0.16471173,0.03590019,0.427059,-0.5429455,-0.48534423,0.32612133,0.41828325,0.06623018,0.2636105,0.2297089,-0.29383317,0.3350467,0.07814637,-0.4478003,0.40059817,-0.12399309,-0.50941944,0.11784652,-0.2724718,-0.5818477,0.30789948,0.16739792,0.46094027,-0.37616187,-0.25940713,0.17162909,0.3679859,0.1532057,-0.4585682,0.49671167,-0.19165386,0.0073297024,-0.26152408,-0.2703056,-0.35629654,0.11087544,0.2345223,-0.4557612,0.35658768,-0.5074108,0.48499525,-0.31961784,0.41264704,-0.12854818,-0.13991371,0.35605696,0.21053706,0.3562148,-0.1703559
now,-0.13606125,-0.35541505,0.13528869,-0.028488547,-0.37721938,0.3149962,0.41053984,-0.25626856,-0.36719438,0.778929,0.32737124,0.104702584,0.013785288,0.40230393,-0.35170722,-0.17743894,-0.06496859,0.033312008,0.19856262,0.3273153,-0.4992234,0.71463245,-0.0041511953,-0.27964216,-0.24255551,-0.49043208,-0.5665255,0.39715216,0.13285919,0.22379503,-0.060423717,-0.21664453,0.59071577,0.2703441,0.6174184,-0.026442826,-0.39664268,0.33671227,-0.3738408,-0.313543,0.043213993,-0.49152967,0.3432572,-1.0384284,-0.08166113,0.83874935,-0.64919823,-0.05265923,0.50616217,0.17258665,-0.6217402,-0.11843451,0.5065691,-0.03175396,0.17632411,0.04443872,-0.22197656,-0.12240964,0.20569669,0.29092726,0.06068553,-0.2190329,-0.687184,-0.4443958,-0.010545332,-0.0929518,-0.5057178,-0.3153475,0.5407161,0.49559873,-0.66869414,-0.17616306,0.13917394,0.5800728,0.21888182,-0.44440377,0.2601416,-0.86588514,-0.47519678,-0.25897405,-0.49230766,-0.6045264,0.66016674,-0.06186539,-0.06945749,0.659062,0.19368073,0.26340625,0.13988078,0.3543698,0.36585316,-0.56786174,0.33053896,0.008389804,-0.14063586,1.0007886
are,-0.35219654,-0.07765384,0.417533,-0.8104292,-0.72065246,0.54082036,0.3729005,-0.51064694,-0.26513612,0.031983986,-0.5293351,0.09809689,-0.54872406,-0.30494693,0.2503704,-0.5530007,-0.330953,-0.94660366,0.80043566,-0.23691207,-0.16110682,0.4622833,-0.045008406,-0.44815788,-0.5282325,-0.42063057,0.16691898,0.82860535,0.44980022,0.06276572,-0.63331807,0.45653698,-0.32594892,0.008827474,0.22093621,-0.40557235,-0.27197343,0.24872842,0.5695683,-0.24713741,0.6259905,0.083829895,0.104207486,-0.41144377,-0.09593191,0.056706093,-0.021000922,-0.11073961,-0.08882395,0.6185603,-0.7525724,-0.13045926,0.30189762,0.15723448,0.42395735,0.20720655,0.2491399,-0.08151513,0.29624474,0.14637873,-0.36338195,0.31215075,-0.49265724,-0.30369115,0.33309466,-0.22344676,-0.6458891,-0.045508206,-0.097727,0.612185,-0.14092012,-0.50514495,0.06286121,0.36575186,0.094560176,0.25255588,0.010950148,-0.53897005,0.29675525,0.033780724,-0.12735064,-0.11084814,0.48958492,0.48075342,-0.60061365,0.035834312,-0.17757925,0.33019954,-0.49471658,0.5831773,-0.72169465,-0.2264472,0.5963199,0.13076189,-0.1929512,0.39226592
so,0.24369425,0.019877486,0.12937799,-0.6629053,-0.6130191,0.42383093,0.32153553,-0.28118595,-0.15804222,-0.18794721,-0.1917048,0.3603739,-0.18673998,0.2215617,-0.4030637,-0.019279901,0.05315183,-0.16121762,-0.11418237,-0.6293286,-0.63523966,0.65541136,-0.43937004,-0.19814697,-0.5814366,-0.23475014,-0.90962964,0.1811961,0.06797349,0.21617833,0.20104983,0.17902258,-0.14805648,0.51894027,0.009225547,-0.36323693,0.40131092,0.54316115,0.5454073,-0.4926201,0.60812557,-0.4861176,0.5930555,-0.586345,-0.24142544,0.50973713,-0.5664028,-0.46479547,0.6353538,0.33306855,-0.043668926,-0.34520352,0.1688318,0.29817864,-0.08162108,0.16383731,-0.27652222,-0.2813505,0.7212792,0.16976763,0.050742857,0.20625198,-0.27496645,-0.47998437,0.42326206,-0.1747297,-0.5131936,0.19078898,0.26885137,-0.035774887,-0.070264935,-0.23302157,-0.1430429,0.04455024,0.3567355,-0.66244805,0.1230803,-0.27745235,-0.20862418,-0.17812788,-0.5900183,-0.56561434,0.25470066,0.07901204,0.12981495,0.22237903,-0.015586898,0.17717925,0.0035833493,0.14236452,-0.0658676,-0.18985705,0.6905198,0.52376324,-0.1343618,0.47521955
but,0.5325512,-0.60694,-0.33722758,-0.25787315,-0.14284657,0.07672726,0.24777491,-0.79466873,0.15326501,0.11882265,0.19000691,0.468071,-0.04943548,0.57545066,-0.6743446,-0.08790246,-0.68976676,-0.063919276,-0.049392752,-0.4159872,-0.028925583,0.35061228,0.21356525,-0.28980225,-0.52339077,0.034062847,0.0878801,0.24138567,0.8197298,0.5000256,-0.35819423,-0.28817773,-0.1484343,0.15063143,-0.068142414,0.3882523,0.78656054,0.4250223,0.50215733,-0.2985686,0.2508499,-0.80291873,0.84146386,-0.36175403,-0.1907396,0.20135584,-0.2777065,-0.107695654,0.70063496,0.864341,0.06948237,-0.07156055,0.66320634,0.39984152,0.17055787,-0.025860474,0.3618778,-0.34977922,0.19825776,-0.09616512,-0.14059833,0.1263709,-0.2508681,-0.43011916,0.24811953,-0.35576516,-0.44992802,-0.43910992,0.37708762,0.15967198,-0.6412556,-0.25404352,0.724666,0.36907935,0.82202494,-0.39316934,0.799771,-0.44297808,0.2654089,-0.38977286,-0.714974,-0.17083369,-0.1402259,0.63365054,-0.40431395,0.34898013,-0.5234721,-0.14087224,-0.5192754,0.37743568,0.07824244,-0.27687958,0.47161755,0.6644656,-0.0015618205,0.21217677
not,-0.2449572,0.21104348,0.057286054,-0.40809962,-0.49335277,0.4048996,0.06930641,-0.42139226,-0.29032725,-0.008193761,0.36422646,0.36402497,-0.2542945,0.27778918,-0.019546714,-0.09923984,0.14576072,-0.40699002,0.38332844,-0.2798568,-0.056146085,0.4805944,-0.52887225,-0.38388935,-0.29639137,-0.11396994,-0.29904678,0.3922783,0.7115506,0.41834158,0.32786512,-0.09499799,0.10647541,0.2019609,-0.088443495,0.04551343,0.12152632,0.42629498,0.03589855,-0.42207265,-0.11325948,-0.47322676,0.40715918,-0.39630818,-0.70970625,0.0977546,-0.53109413,-0.025555938,0.538537,0.12083655,-0.27295732,0.026419543,0.5974313,0.106923625,-0.21754032,0.36235732,0.38060522,-0.5589813,0.7626916,-0.5530683,-0.29294008,0.83683896,-0.24062327,-0.7880747,0.2537756,-0.23127234,-0.3698355,-0.2746302,0.29568684,0.2107906,-0.8296462,-0.6055138,0.059540406,0.55812544,0.5054323,-0.10042252,0.18182556,-0.7421761,-0.10852361,0.15319028,-0.18761088,-0.17969349,0.05520782,0.48804498,-0.22698581,0.01400581,-0.4969185,0.031504035,-0.408072,0.52961123,-0.32897657,-0.5889345,0.25973403,0.51047075,-0.036508486,-0.1793097
or,-0.40425575,-0.3945014,-0.14569385,-0.39522922,-0.037802443,0.1030092,0.14060165,-0.300734,-0.82184184,0.40090793,0.5261129,0.46590364,-0.07672577,0.6328636,-0.5072672,-0.104356274,-0.14003626,-0.12549537,0.021759346,-0.1457343,0.030501992,-0.23221667,-0.3074141,-0.5853207,0.35701644,-0.5420868,-0.24620585,0.19287199,-0.12699753,0.3736129,0.060979694,0.29526758,0.43182242,0.302656,0.6810771,-0.3674146,-0.47084802,0.66220546,0.0728088,-0.24014854,0.14688654,-0.28107265,-0.005698465,-0.5440204,-0.006503254,0.08405334,-0.32593346,-0.25789598,0.07359046,0.3049308,-0.5032473,-0.34267193,0.7547257,-0.1332208,0.30398905,0.512142,-0.6615187,-0.41426155,0.37165242,0.22550915,0.017279923,0.14273155,0.0044611543,-0.47581983,0.20391148,0.15557268,0.16409627,-0.44888753,0.17112175,0.51913714,-0.28083783,-0.18448892,0.15757865,0.15876915,0.2605359,0.17692629,0.1993983,-0.38785928,-0.110649,-0.12915091,-0.09264002,-0.07222012,0.46842906,0.46695188,-0.23491177,0.09675397,-0.42914754,0.5614592,-0.7483239,0.38802877,0.64831436,-0.7380332,-0.13980411,-0.187299,0.11998814,0.12000791
do,-0.24064815,0.19105616,0.5813285,-0.096822545,-0.5391522,0.36983675,0.5110473,-0.14445662,0.027957812,-0.88379836,-0.47390175,0.104986444,-0.16883479,0.5950592,0.029340744,-0.12485108,-0.15797815,-0.21133442,-0.35691908,-0.33813244,0.011312157,0.38453358,-0.38174498,-0.4968655,0.24139228,-0.18608685,-0.20207554,0.24451038,-0.16637425,0.594669,-0.10409109,-0.24632104,-0.5574114,0.6822129,0.4404335,-0.15083066,0.5182536,0.65452707,0.22189227,-0.59388363,0.034365624,-0.48362425,0.35172096,-0.5009364,0.06380227,0.44294816,0.19284031,-0.44511572,0.37115523,0.5516622,-0.39217705,-0.19627011,0.6133734,0.4862604,0.061359663,0.5462749,-0.122876294,0.036662817,0.40059033,-0.33046445,-0.59408844,0.7629348,0.0060437024,-0.38809872,0.17622554,-0.18799973,0.047199324,-0.2103826,0.6433673,0.6180518,-0.11582217,-0.04140716,-0.51986814,0.3422805,0.1297434,0.2683118,-0.039792918,-0.34850305,0.61690485,0.25043136,-0.48841548,-0.43684965,0.22670966,0.7453596,-0.050144188,0.3375919,-0.5385387,0.8085425,-0.17874534,0.5686156,-0.6849772,-0.6443535,0.005091697,0.36276475,0.23120551,0.069024935
can,-0.26781958,-0.5433614,0.009670854,-0.06682962,-0.1445504,0.20864917,0.6323184,-0.59120715,-0.33739048,-0.8028217,-0.59568095,0.15338105,-0.032212585,0.46535748,-0.42712945,-0.35205895,-0.4633744,0.3320599,-0.23488837,-0.34283334,-0.13963704,0.24213615,-0.30342185,0.0012653526,-0.034016073,-0.22207302,-0.27226108,-0.14404123,0.09261125,-0.047409534,-0.2701,-0.30252478,-0.5674642,0.7261394,0.554001,-0.107817225,0.4998258,0.7196406,0.4723016,-0.21551949,0.18272409,-0.50069755,0.662379,-0.05963584,-0.10826661,0.49873212,0.061624497,-0.50685245,0.8795686,0.3451851,-0.07459114,-0.18639702,0.08072205,0.61538166,0.44487712,0.73336214,-0.2624519,0.017582878,0.22610478,0.11761029,-0.27496123,0.2413046,-0.17163916,-0.31310067,0.44129196,-0.081997834,-0.2608935,-0.10260297,0.271252,0.47080162,0.06943319,-0.15294401,-0.19688568,0.23340356,0.11815813,-0.20683828,0.40813956,-0.34972596,0.32621124,0.030648798,-0.36832047,-0.62346697,0.6247142,0.4437818,-0.09745234,0.63363,-0.0724107,0.24269335,-0.13577217,0.3046425,-0.5184033,0.16433899,0.3508338,0.13722512,0.010047877,0.5710442
at,-0.5362888,-0.31182638,0.25025657,0.0062970817,-0.42397952,0.68874705,0.04377511,-0.7233778,-0.3031103,0.25162226,0.1957013,0.6671442,-0.25567997,0.18672356,-0.6853683,0.11358012,-0.40276796,-0.018015586,0.7621297,0.031278044,-0.24538895,0.31182712,-0.13665362,-0.06302109,-0.32717723,0.13625841,-0.42091346,-0.048143424,0.27158353,0.3344587,-0.25453827,0.36135405,0.57435936,0.056008853,-0.044299185,-0.049196005,-0.011051506,-0.08476995,0.4166441,-0.7643615,0.16962048,-0.22861534,0.04377494,-0.24111997,-0.5640168,0.5741661,0.044387944,0.6004788,0.6885946,0.25833857,-0.20859271,-0.54934585,-0.15683821,0.34339118,0.14066084,0.50038946,-0.2493931,-0.24240093,-0.54152066,0.15525728,-0.54249537,0.7886956,-0.2909371,-0.017940328,0.24036777,-0.15437639,-0.27794114,-0.30785504,0.44003463,0.27790847,-0.22086853,-0.21503833,-0.02549829,0.05888036,0.53347015,0.028134316,0.21510148,-0.88157463,0.19478792,-0.07478833,-0.3681451,-0.060986236,0.5053961,0.17562433,-0.28269607,0.51361763,-0.08732769,-0.15665075,-0.112624034,0.6424158,0.2638373,0.043236822,0.47528884,0.24997486,0.012154227,0.3072513
i'm,-0.037608728,-0.03164553,-0.4335234,-0.28007275,-0.72498304,0.5945614,0.051506788,-0.32418874,-0.30235708,0.72464633,0.082757354,0.32309407,0.18637854,0.4810962,-0.11727655,-0.024177425,0.37803173,-0.21293916,0.48275232,-0.09605998,-0.4230285,0.41008517,-0.44624954,-0.07549285,-0.4491538,-0.17319845,-0.3413592,0.1930266,0.29118165,0.16553777,0.36248487,0.042607546,0.11543167,-0.07455702,0.06883348,-0.2724192,-0.0771162,-0.20804748,0.3275544,-0.6434152,0.33610275,-0.43124104,0.24866457,-0.48012227,-0.4305321,0.020952344,-0.5026415,0.037180662,0.5882236,0.015747726,0.03819698,-0.27053457,0.097659916,0.34034628,-0.4549938,0.075404964,0.24163333,-0.3867191,0.42630032,-0.11193406,-0.010347003,0.50326484,-0.7337777,-0.4085613,0.047241285,0.13594747,-0.5090969,-0.033705086,0.20143327,0.3806577,-0.8730655,-0.58827454,0.010326199,0.47976014,0.45427668,-0.67515576,0.34394044,-0.9311723,-0.15520868,-0.25778028,-0.2122379,-0.3185497,0.35714036,0.34270006,0.061601922,0.10145089,-0.105852716,-0.4347089,0.09198129,0.5081299,0.011713289,-0.30628002,0.40434694,0.56129926,-0.3585827,0.17599702
ur,-0.1055224,0.49958116,-0.04728239,-0.13650836,0.055398807,-0.09659748,0.1079749,-0.030470036,0.5525618,0.57198733,0.7454956,0.0742761,-0.60119194,0.35879236,0.023370937,-0.20512453,-0.78316855,-0.56720835,0.08797132,-0.45609057,-0.19642505,0.67264664,-0.40425956,-0.24727803,-0.08490147,-0.37327158,-0.5063428,0.2039714,0.18776989,-0.069824755,0.23217481,0.55742383,0.26228577,-0.1837212,0.13556744,-0.079024255,-0.96934044,0.4870908,-0.066518866,0.08625573,0.3366336,-0.24004367,0.029459756,-0.12646125,-0.14811537,0.5887029,-0.57175624,0.19783008,0.5153359,-0.19911718,-0.5356322,-0.80415654,0.15719736,0.099385396,-0.16422175,0.34074816,-0.828033,-0.46405095,0.15122756,-0.07190195,-0.1390168,-0.040301375,-0.59463584,-0.032634936,0.19680072,-0.2906453,-0.48188913,-0.3916008,0.569383,-0.18096548,-0.21176061,-0.5956349,0.40165883,0.08078769,-0.15723838,-0.8979718,-0.17214859,-0.07825262,-0.9707259,-0.12211476,-0.32902148,-0.46855724,0.3133,0.16773391,-0.25242132,0.42885974,0.24447323,0.503034,0.18931518,0.23486155,0.46966547,-0.71836966,0.13506371,0.35343364,-0.091801435,-0.10867687
get,-0.2801471,-0.12139656,0.29404196,-0.31042513,-0.122438096,0.25448787,0.28156626,-0.41645256,-0.13406307,-0.48849934,-0.3409615,0.22306079,-0.13167539,0.30782664,0.055817854,-0.272078,-0.3652115,0.3672162,0.07393228,-0.6228975,-0.35289967,0.69622827,-0.64931047,0.45016715,0.08098911,-0.64591706,-0.38287973,0.3158657,0.18072052,-0.17615804,-0.2795926,0.058876306,-0.19003075,0.63561255,0.67917633,-0.4417906,-0.05071503,0.31129652,0.49432084,-0.08426559,0.33117044,-0.26028112,-0.0692103,0.18068624,-0.46667475,0.5306299,0.16757141,0.27538925,0.24342932,0.057635564,-0.6447711,-0.45863554,0.30420867,0.7004858,-0.20043685,0.48010805,-0.12796196,0.14180925,0.4241789,0.31546244,-0.26348704,-0.09705796,-0.23841849,-0.2892039,0.60116017,-0.18358499,-0.18387115,-0.67304486,0.08810576,0.11252718,-0.5750899,-0.49675614,0.10060829,0.13029316,-0.15560131,-0.39274985,0.45433757,-0.40788454,0.21583708,0.22094838,-0.103101805,-0.64871466,0.31754312,0.5195611,-0.15775481,0.5719979,-0.26019642,0.3257716,0.13421345,-0.014093712,0.14091039,-0.23371762,0.19655801,0.16934086,0.03205788,0.37195826
will,0.5316872,-0.21595375,0.43248492,-0.04115604,-0.16764629,0.13613588,0.5476456,-0.56461763,-0.58272135,-0.65244627,0.07241577,0.0390503,-0.21856475,0.28689018,-0.15627208,-0.018713713,-0.016133592,0.34016177,0.21093701,-0.26965797,-0.49214816,0.1777609,-0.010630585,0.1675568,-0.36177817,-0.08334823,-0.4346457,0.394127,0.69268847,0.16518232,0.045300156,-0.31295457,-0.2401999,0.13877185,-0.19311132,-0.24771035,0.478447,-0.02339746,0.39092904,-0.27356684,0.044316202,-0.20838134,0.27364624,-0.14390564,0.39075756,1.05061,0.060185462,0.14476787,0.13577797,0.464506,-0.6654898,-0.7806032,0.58493114,0.5464127,0.53225005,0.31711414,0.028061636,-0.0510343,0.26975417,0.42767715,0.09976128,-0.43295583,-0.19576314,-0.03839279,0.04130419,-0.87418497,-0.68701196,-0.45906934,0.01359427,0.37200353,-0.7237706,-0.3667947,0.35820112,0.34132293,0.4352262,-0.34934303,0.6041989,-0.28076863,-0.7337338,-0.092920884,-0.44038025,-0.8606581,0.30607697,0.40095603,-0.4925915,0.40654445,-0.6151445,0.63003325,-0.27394995,-0.19718993,0.2901518,0.42929885,0.24174093,0.34084868,0.018753847,0.3417881
if,-0.32376045,-0.025307883,-0.015626855,-0.009666232,-0.2438699,0.15373193,0.36595574,-0.4063954,-0.4174416,-0.46670443,-0.5251605,0.028910846,-0.24171093,0.81895924,-0.0021891575,-0.54237664,-0.13886908,-0.05360654,-0.1534242,-0.4348761,-0.21048507,0.18702689,-0.6205411,-0.49359214,0.008409083,-0.07512346,-0.02652067,-0.206948,0.35065645,0.2613722,-0.10046799,-0.04255086,-0.6990099,0.209001,0.38462707,-0.16873004,0.065606736,0.75852096,0.3749984,-0.2568523,0.45211178,-0.40484446,0.48784712,-0.3506397,-0.31627035,0.32521537,-0.1370686,0.041527346,0.7013509,0.40184984,-0.013247013,-0.054382563,0.62338173,0.39815706,0.4166193,0.8020098,-0.5144453,0.026525468,0.6615713,0.079472736,-0.25253242,0.5318658,-0.046872668,-0.4136592,-0.030551419,-0.20094483,-0.08516906,-0.08431941,0.06393126,0.39367017,-0.30985612,-0.4082538,0.3629269,0.27154553,-0.14521638,-0.5082519,0.0015804097,-0.68744826,0.3790208,-0.06721325,-0.3535903,-0.7920382,0.53025824,0.6649412,-0.1608181,0.3347535,-0.4911043,0.045932777,-0.34590566,0.5245087,-0.27113125,-0.28381208,0.21793018,-0.23971997,0.022000283,0.16473591
be,0.36146316,-0.12418294,0.7028024,-0.25821868,-0.4898535,0.040541574,0.41665912,-0.5734976,-0.46082002,-0.38843766,0.14148548,0.26438183,-0.22045115,0.21607792,-0.43782374,0.045262255,-0.3538338,-0.06716974,0.5383723,-0.061404064,-0.14011304,0.24720377,-0.41054004,0.3182335,-0.13374095,-0.23763022,-0.58523774,0.1551047,0.29667637,0.14704938,-0.03904283,-0.29831886,0.062815726,0.3540376,0.01572907,-0.33105406,0.52079654,0.10397059,0.44270426,-0.46343267,-0.15702471,-0.30851665,-0.053741463,0.30362475,0.04653439,0.6953386,-0.21727228,0.20125878,0.058323167,0.19846283,-0.5316218,-0.9707738,0.20007351,0.69176596,0.06532459,0.22200385,0.53032565,0.057882458,0.117046274,-0.16365421,-0.24052909,0.067650825,-0.21066664,0.13568623,0.31478128,-0.58788204,-0.5305188,-0.5010109,0.24348655,0.33438382,-0.57817876,-0.21863571,0.2077663,0.29087463,0.7090186,0.08565624,0.7803932,-0.69074947,-0.49532178,-0.19456203,-0.6687505,-0.23426396,0.46007395,0.10411628,-0.4178363,0.4360687,-0.30344427,0.7001972,-0.36655003,0.089238286,0.3747646,-0.1296348,0.37508237,0.5689984,0.039370567,0.19354068
with,-0.5402902,-0.38536263,0.21682288,-0.85787964,0.011516436,0.2775453,0.42413282,-0.35819203,0.18017766,0.27926728,0.30219805,0.084801815,-0.36394098,0.094846755,0.041414738,-0.17222422,-0.37974077,-0.16440086,0.55568844,-0.49324888,0.005635392,0.48959064,-0.58422625,-0.14957952,-0.020925619,-0.5435474,-0.0124344975,0.002738176,-0.2573866,0.10658174,-0.70199716,0.30841184,0.13774565,0.39188552,-0.06537287,-0.680228,-0.39123014,0.5647832,0.60113674,-0.36171556,0.5054172,-0.24769716,0.35326663,-0.33431658,-0.25849286,-0.31894422,-0.1189489,0.26509506,-0.6197863,0.11347238,0.02559236,-0.3358647,0.33426332,0.44675168,0.2049365,0.45877942,-0.23960167,-0.22844447,0.11907755,-0.015337221,-0.3963044,0.18574192,-0.13223149,-0.20383771,-0.09339732,-0.28449368,-0.55593807,-0.37260947,0.26168674,0.39333108,0.14003722,0.20158795,0.6911211,0.42254335,-0.07683301,-0.28708622,0.25229064,-0.24372362,-0.3165752,-0.38444462,-0.27154255,-0.1982059,0.51459265,0.74131703,-0.54513747,0.20890753,-0.6832438,0.4358081,-0.55027044,0.12985206,0.2949915,-0.6278533,0.33646047,0.38448247,0.21875548,0.20246749
just,0.024352431,-0.18095912,0.54399174,-0.5421758,0.37335247,0.12215066,0.37501332,-0.33613175,-0.41309744,-0.2452601,0.17452043,0.1179631,-0.17503735,0.36075518,-0.35231388,-0.28454694,0.18463564,-0.0485238,0.22652659,-0.31557596,-0.5386627,0.8187849,-0.372772,-0.33082172,0.0400199,-0.0766729,-0.71158373,0.18836877,0.16588084,0.27591288,-0.10251714,-0.41406316,0.4214771,-0.042443648,0.97707695,-0.44455364,-0.36980212,0.3887056,-0.14417699,-0.40266752,0.32119873,-0.2717217,0.21749946,-0.2948587,-0.53171206,0.35918522,-0.70284534,0.47935316,0.07136488,0.07888058,-0.18822144,-0.17903419,0.5384742,0.21443892,0.039569136,0.45785517,0.020785183,-0.16939175,0.6965829,-0.3239318,-0.5910061,0.08424288,-0.23545916,-0.4447978,0.1782797,-0.4469758,-0.4183476,0.08607109,0.45055646,-0.15576288,-0.43632576,-0.4895932,0.31701195,0.5399889,0.3048031,-0.3666811,0.28750652,-0.3837791,-0.87358177,-0.34584,0.08600986,-0.20755857,0.44694552,-0.1461519,-0.06399134,0.396797,0.11070356,0.06437443,0.28724506,-0.023143977,0.49673027,-0.5553437,0.68699235,0.034847584,0.07871036,0.45225337
no,-0.19757535,-0.37583405,0.13332178,-0.20155007,0.41215608,-0.30362487,0.15594733,-0.2238992,-0.3088601,0.96040356,-0.03447423,-0.28146645,-0.22952588,0.4065848,-0.21956769,-0.6252235,-0.6212742,-0.7762907,0.31653273,-0.1553866,0.33032638,-0.08502482,-0.4061362,-0.3456285,0.23284885,-0.117817566,-0.22048396,0.22411947,0.24355316,0.025683582,-0.75396514,0.28220615,0.5749523,0.41608608,0.10997842,-0.35541606,-0.27436525,0.47952548,0.3054244,-0.22836424,0.34970212,-0.42881703,-0.15279683,0.006885022,-0.054979056,0.023448363,0.2751223,0.18756346,-0.052789375,0.46059996,-0.42362183,0.48807794,0.40488696,-0.0086174905,0.7324376,0.17147732,-0.1605157,-0.3086892,0.22958754,0.11003873,-0.082633935,-0.07810286,-0.11917347,-0.28306624,0.72680736,-0.44210443,0.10674213,-0.23057508,-0.06327376,0.04878567,-0.35666528,-0.35918888,0.8509989,0.024163187,0.48056382,-0.028407067,0.5838527,-0.92227364,0.059574097,-0.17728767,-0.23503083,0.1513105,0.1564421,0.0031318143,-0.34847072,0.036649525,-0.5795465,-0.0036840662,-0.29476976,0.41227663,0.3394214,-0.6040212,0.12388194,-0.0012230277,0.6470796,0.15321964
we,-0.32670647,-0.4042041,0.8658187,-0.41796097,0.029882222,0.39336473,0.49384117,-0.6112502,-0.64016324,-0.18961278,-0.38666666,0.21082437,0.06398345,0.24035479,-0.18121232,-0.72431624,-0.39255604,-1.0343664,-0.28756136,-0.31870505,0.32845235,0.0954019,-0.22419998,-0.13872728,-0.6287181,-0.3837639,0.1745859,0.25629008,0.73918205,-0.11534316,-0.5303556,-0.112637825,-0.32660437,0.091804385,0.58429104,-0.2629349,-0.04464309,-0.034998126,0.19582435,-0.028885946,0.021720767,0.29453808,0.40518102,-0.1127003,0.1753514,0.5141188,0.045618176,-0.18657109,0.20567797,0.40311176,-0.3302351,-0.35263172,0.1416361,0.40097284,0.18924956,0.51968324,0.16757922,-0.2664107,0.22073424,0.24292237,0.091447026,0.86520195,-0.55981255,0.08176884,0.6379043,0.33538714,-0.19655648,-0.51868975,0.11247279,-0.020150408,-0.51436174,-0.76890635,0.34159377,-0.00066542625,-0.09238162,-0.28236786,0.5371973,-0.52404016,0.04587993,0.3844398,-0.22435455,-0.4309541,0.14330186,0.47686642,-0.48917478,0.37537074,0.39684343,-0.28977948,-0.06691788,0.24453144,0.36358416,0.50900775,0.5758951,0.15691794,0.6919457,0.21257004
this,-0.53834563,0.23172209,0.5256457,-0.4224669,-0.40307716,0.4410085,0.106458835,-0.36282128,0.33412287,0.18602231,0.13498594,0.21126229,-0.2053169,0.02324779,-0.1619738,0.005417045,-0.14059958,-0.33975202,0.47850877,-0.6403917,0.053110868,0.7561225,-0.3474492,0.123773076,0.10078885,-0.12979862,-0.35168064,0.2659413,0.4969238,0.3635756,-0.5364003,0.2883342,0.6983497,0.6303643,-0.06839899,-0.06553927,0.07900931,0.07815963,-0.21447998,-0.52447546,0.41792032,0.040095404,0.19156866,-0.25455463,-0.48943958,0.2799044,0.19095379,0.88043785,0.23689187,0.19363505,-0.12740713,0.087510295,0.22770675,0.67949903,-0.5363401,-0.29960746,-0.13686351,-0.06986825,0.025889337,0.5386534,-0.53741264,0.18684787,-0.117654085,-0.4191239,-0.30642864,-0.5795884,-0.13330975,-0.26052326,0.14330792,-0.3162631,-0.2865173,0.2881472,0.33611187,0.3434652,0.12617518,-0.06163305,0.4596785,-0.40794307,-0.28747204,0.12491487,0.06976747,0.005962327,-0.27133456,-0.13598603,-0.31273013,0.46496987,-0.7417043,0.19174588,0.03991367,0.45667374,-0.017491564,-0.4520303,0.40899068,-0.09448895,0.57401276,-0.13537753
4,-0.45876926,-0.2628813,-0.37998188,-0.27223185,0.22551727,0.14099835,0.32701194,-0.40316042,-0.4522127,0.4085089,0.8469836,0.97261614,-0.3360749,0.052445434,-0.71006656,-0.27318388,-0.46131527,-0.1401634,0.11415726,-0.6245834,-0.35339013,0.017802494,-0.43100572,-0.061691508,-0.3207572,-0.23216647,-0.3734765,0.27372167,0.1351802,0.026556313,0.17687829,0.95054173,0.6863742,0.19249305,0.22138065,-0.3702894,-0.7788781,0.6732125,0.13360214,0.006899271,0.3481946,-0.19504935,-0.09640438,-0.5138844,-0.18886477,0.3194316,-0.2769965,-0.41525525,0.1125471,0.017701194,-0.47417897,-0.40838686,0.3330724,-0.07536241,0.40608108,0.6088673,-0.9999653,-0.9554765,-0.037467197,-0.27495176,-0.31019562,0.09074958,0.14844179,-0.2687713,0.48955896,-0.07751283,-0.5339332,-0.5161655,0.19815986,-0.026137903,-0.14102158,-0.43239903,0.4154135,0.22769707,0.2563228,-0.6389585,0.29058215,0.09910792,-0.29167274,0.22186948,0.042490676,-0.14505783,0.4499356,0.27565676,-0.35214448,0.121379726,0.046460375,0.31675825,-0.0760125,-0.056271225,0.9356693,-0.17399977,0.14692739,0.15039632,0.017322347,0.125426
gt,-0.5463286,-0.42060667,-0.15575854,0.07218985,-0.5384172,0.54475677,0.6245227,0.10188988,0.090933785,0.13587016,0.06340936,0.14221618,-0.4551496,-0.077054664,-0.3883471,0.28183854,-0.45624045,-0.4532597,0.4704559,0.24626845,-0.39853334,-0.6775215,-0.34278625,0.018324554,0.1473674,-0.39937034,-0.5512748,0.22456962,0.42878178,0.5236473,0.04695064,0.4563343,0.7064371,0.5033956,0.2702305,0.0066761672,0.24284989,0.68082905,0.6334163,-0.48235744,0.4287601,0.03623829,0.36545235,0.1401731,-0.031532854,-0.10468546,-0.44235283,0.5113351,0.4203257,0.3951408,-0.30968794,-0.54114485,-0.58441305,-0.08959705,-0.3523681,0.57074934,-0.06267069,-0.5991589,0.6108197,0.4506791,-0.43703628,0.43114683,-0.26352075,-0.44044495,0.5817427,0.16836354,0.055037268,0.31814104,0.025418535,0.34101143,-0.30737263,-0.5604169,0.065813035,-0.12869753,0.44530204,0.43361792,0.36200616,0.08164051,-0.31116658,0.044763803,-0.4471275,0.24129835,0.45880002,-0.7425988,0.013190672,0.6701011,0.6622586,0.46746516,-0.5648861,0.43279564,0.53291243,-0.029598162,-0.007963755,0.4194288,0.5098076,0.28339726
lt,-0.5334272,-0.40406668,-0.099003956,0.13810115,-0.41080034,0.5424006,0.67483383,0.17739134,0.18297258,0.16060057,0.21774936,0.2416633,-0.46993116,-0.07055211,-0.37224573,0.33945674,-0.41063792,-0.61601293,0.5856567,0.18444467,-0.36539775,-0.66349006,-0.28708512,0.08527066,0.15614124,-0.4841329,-0.50303555,0.19724338,0.3427583,0.55419064,-0.03531994,0.37536252,0.83072805,0.46777195,0.26789165,0.024035856,0.31487617,0.59537494,0.62252414,-0.5399437,0.42243382,0.086415745,0.30456814,0.2517851,0.011504352,-0.24916098,-0.49484307,0.5720035,0.33632934,0.42854485,-0.3015386,-0.7469949,-0.6710335,-0.029647738,-0.2703506,0.63706756,-0.14958224,-0.5282821,0.42243764,0.39114365,-0.46163312,0.49963376,-0.25356764,-0.35455215,0.47299296,0.22894488,-0.004706949,0.12504235,0.053860962,0.43616152,-0.33895415,-0.32922956,0.039575517,-0.27662104,0.52638406,0.350367,0.4380411,0.039697398,-0.27057785,0.11415345,-0.2775914,0.26634145,0.5336379,-0.643456,-0.08611165,0.7996306,0.68412673,0.5775714,-0.47773135,0.40533048,0.62608325,0.04750748,-0.011994479,0.55164057,0.5245558,0.26959136
up,-0.5517676,-1.0027156,0.114642024,-0.41007873,-0.06105195,0.39324522,0.13218375,-0.5949675,-0.64351785,-0.50202173,0.24391454,0.116219774,0.02619028,-0.046881042,0.17082903,-0.36755437,-0.3415185,-0.0016143303,0.45345888,-0.4785908,-0.17749023,0.46041003,-0.2621886,-0.15106201,-0.39824584,-0.46948475,-0.37231946,-0.061682176,0.11292037,0.17128477,-0.55336016,0.4761027,-0.3535686,0.6319388,0.17541611,-0.4013745,-0.4293207,0.07839219,0.12287931,-0.53673524,0.4062057,-0.09818542,0.0018092841,-0.24229234,-0.56499684,0.59978086,-0.84858966,0.32947013,-0.10932353,0.419744,-0.37223542,-0.391727,0.030144885,0.45535207,0.07844511,0.43692034,0.12507366,0.15546146,-0.39681607,0.35325524,-0.61964625,0.26896483,-0.40442088,0.48548067,-0.100263834,-0.3478759,-0.6744145,-0.4561971,0.3252858,0.47271767,0.11588389,-0.6898396,0.051043775,0.14413151,-0.20819655,-0.24199656,0.32176435,-0.6042373,0.34319967,-0.060644314,-0.25589693,0.15270261,0.39040464,0.33826762,-0.12677042,0.2213297,-0.2586593,0.20192695,-0.033077687,-0.09903203,0.63431054,-0.11528835,0.27994448,0.29872146,-0.4207302,0.9467974
when,0.031768844,-0.22595431,-0.07025018,-0.5664083,-0.67748773,0.65538985,0.42831236,-0.60113597,-0.38813972,-0.8991188,-0.15567565,0.17985356,-0.22203684,0.047854118,0.030542137,0.29958716,-0.23514163,0.56209296,-0.12958759,-0.7581014,-0.52648026,0.6019975,0.048149645,-0.28301448,-0.49080333,-0.2816957,-0.20394346,0.49390885,1.0055758,0.040436096,-0.1828154,0.45418674,-0.4423669,0.21586034,0.08561362,-0.017969236,0.53912616,0.48424432,0.47332567,-0.07963172,0.51208544,-0.1794339,0.16683266,-0.27225816,-0.10946105,0.26765606,-0.050752074,0.13724916,-0.28925917,0.49742123,-0.3273057,-0.28743297,0.23225567,0.1592859,-0.12663442,0.64818716,0.18496032,0.23428804,0.5388074,0.54672766,-0.08239253,-0.16576885,-0.18055312,-0.55863243,-0.3391202,-0.21649879,-0.53448915,-0.38169438,-0.09744377,0.29221323,-0.6089637,-0.29340512,0.31041324,-0.022977263,0.20427254,-0.32443166,0.23524347,-0.15035085,0.4181804,0.006993443,-0.25869113,-0.32256532,0.02524868,0.70190245,-0.39711493,0.39231306,-0.48272943,-0.007382162,-0.5301838,-0.032079212,0.39171106,0.44809172,0.54408026,0.3446732,-0.4044718,0.26110905
ok,0.25667128,-0.360814,-0.12286935,0.1702744,0.046773437,-0.19243681,-0.08190256,0.2458908,0.059559338,-0.32806933,0.41176432,-0.23027413,-0.38796028,0.5410433,-0.28727406,-0.47258434,0.05365026,-0.15076604,-0.10930068,-0.4159119,-0.39369443,0.01266739,-0.094273776,-0.3441897,-0.20217976,-0.35843736,-0.48531115,-0.25559038,0.56741154,-0.08480757,-0.09017264,-0.09428369,-0.0884047,-0.18063131,0.11134799,0.004697904,0.2169477,0.53859705,0.03878001,0.45852757,0.027334481,-0.0010685325,-0.18113868,-0.25163355,-0.09924872,0.36053655,-0.6242212,-0.14742763,0.0219871,0.49868265,0.21204248,-0.027454477,-0.16042064,0.14936727,0.3665857,-0.048211105,0.49240202,-0.09021732,0.096455395,-0.11188781,-0.20755696,-0.102285035,-0.19817418,-0.42577475,0.32090783,-0.55990124,0.010562345,-0.045110147,0.4614042,0.2799282,-0.40977475,-0.29842386,1.1486188,0.21598533,-0.017978922,-0.14089355,0.1620135,-0.16280103,-0.63608587,-0.558023,-0.18109629,0.23471573,0.3849737,-0.059119184,-0.26369622,-0.048972636,-0.39203268,-0.35853612,-0.44546816,0.330567,0.28081852,-0.19375178,0.24012215,-0.095046386,-0.30563408,0.031816106
free,-0.6903267,-0.20242374,0.70588756,-0.49560344,0.32749054,0.45992392,0.4606615,-0.26134592,-0.33236003,0.6678915,0.54388183,0.14533612,-0.16772032,-0.5266696,-0.2703407,-0.33196223,-0.25969297,0.10726242,-0.19020982,-0.22060467,-0.108777724,0.35553485,-0.37452748,0.010630029,-0.22654602,-0.5994574,-0.7941794,0.26555455,-0.1654097,0.38343596,0.0002171956,0.0013406873,0.7463956,0.53685087,0.7267252,-0.35272363,-0.28563935,0.46924213,0.113510825,0.1710391,0.02539445,0.34501636,0.15170448,-0.43061465,0.070291296,-0.08992942,-0.07844674,-0.024646997,-0.49055272,-0.052851524,-0.58185947,-0.0014618654,0.79951245,0.007839555,-0.4468636,-0.3072315,-0.60855067,-0.2214087,-0.0013041608,-0.111270584,0.2096507,-0.59226644,-0.3421072,-0.46050668,0.36837748,0.13990246,-0.10233682,-0.54458994,0.18840525,0.31651342,-0.117195144,0.03576505,0.1369315,0.351868,0.1850293,-0.39262566,0.31764227,0.096884556,-0.6598296,0.042544276,0.36228743,-0.30341873,0.7325568,0.17354746,0.04698856,0.0941902,-0.079705425,0.108441986,0.13649905,-0.23723924,0.78084505,-0.38157463,0.49774116,-0.2854829,0.3305186,0.3004331
from,-0.53645164,-0.6640011,0.8213514,0.16351002,-0.5271122,0.16554755,0.21690497,-0.50039417,-0.6239141,0.39026952,0.7050926,0.09808156,-0.17266822,0.24337363,-0.47131538,-0.38572893,0.08796343,-0.4686523,0.8340434,-0.16823862,-0.62019336,0.69096476,-0.31903726,-0.66785675,-0.40314895,-0.42343175,-0.44530007,0.23271132,0.1545704,0.56586504,-0.2560162,0.50262123,0.62767005,0.32093206,0.27078864,-0.29058766,-0.4117748,-0.09684564,0.2866164,0.32203528,0.17285103,-0.38380116,0.004599832,-0.13122532,-0.45662117,0.03384,-0.01463902,0.15348493,0.61697966,0.3004163,-0.33421016,-0.53194654,0.08689666,0.4790297,0.31136924,-0.34958693,-0.49873224,-0.27965945,-0.06974031,0.7826867,0.051597863,0.23203237,0.024156604,-0.44328237,0.042423688,-0.63572294,-0.63592434,-0.2818755,-0.18854764,0.5219369,-0.5780908,-0.053511634,-0.2513011,0.31942764,0.65394616,0.059555158,0.13522342,-0.29756305,-0.10468957,-0.22829069,0.2624023,-0.6336614,0.35600293,-0.040214136,-0.63914555,0.23526564,-0.5057905,0.42914838,-0.2624061,0.061449975,0.46945247,-0.16449347,0.029701024,-0.23752238,0.31900015,0.4728244
go,-0.36905596,-0.75851697,-0.06713894,0.013286047,0.09940544,-0.09663591,0.20510241,-0.398497,-0.45372778,-0.34726775,-0.3420004,0.42211258,0.40515488,0.15842836,-0.15104023,-0.5830813,-0.03958676,0.056726277,-0.27199668,-0.330846,-0.19740318,-0.108799286,-0.41615972,0.14327736,0.1646075,-0.19603729,-0.3489568,0.42268634,0.6424364,0.19882068,-0.14492232,-0.028100044,0.092996076,0.34707916,0.24666968,-0.734631,0.12164688,0.22756517,-0.013278365,-0.40170005,-0.27514595,-0.0626682,0.35448956,-0.12912112,0.23040262,0.938861,0.20407908,0.22448902,0.1819109,0.3861471,-0.3633678,-0.11753091,0.38308126,0.1786855,0.5430333,0.3499164,-0.70320994,-0.3194965,0.175346,0.15910533,-0.28879118,0.25468922,-0.16452494,-0.30969283,0.7070619,0.03106952,-0.05125531,-0.4474208,0.54287106,0.18315685,-0.2634014,-0.45591417,-0.06968911,0.43908095,-0.4400319,-0.31070855,0.6060358,-0.69692814,-0.39635846,0.4147704,-0.066489786,-0.4119239,0.73286414,0.49840534,-0.21914184,0.35225415,0.14917302,0.30025604,0.5386672,0.11744922,0.0378837,0.32461596,0.6177217,0.32009697,0.24502322,0.57627636
how,0.20656575,-0.32903755,-0.05285573,-0.30118322,-0.22134936,0.10488416,0.33909512,-0.05839821,-0.6650492,-0.58606625,-0.41114432,0.20457546,-0.5136324,-0.06725464,0.39495796,-0.036575407,-0.5605303,-0.32662615,0.60163146,-0.59594864,-0.08832237,0.16150424,-0.16957697,-0.14077485,-0.4404047,-0.19800591,-0.26559326,0.18513207,0.0131841,-0.55066574,-0.60790896,0.3642386,-0.54260266,0.09987512,-0.024566315,-0.34526592,-0.029170683,0.4610439,0.011302799,-0.15055923,0.3704684,0.008819804,0.12659188,-0.1457699,-0.39715493,0.14694826,-0.030440945,-0.2658525,0.37728858,0.36373562,-0.430865,-0.24629653,-0.49069387,-0.11433485,0.37117085,-0.097931504,-0.20686552,-0.25056955,0.15822998,0.3190284,-0.26557326,-0.009638857,-0.021350294,-0.24237768,0.6979583,-0.78788173,-0.45903537,0.60891473,0.33874238,0.48344773,0.26997864,-0.2680285,0.012392074,-0.18138522,0.19344327,0.04255651,0.26685518,-0.3025484,-0.12715563,-0.38868913,-0.27241397,0.0020220205,0.2706505,-0.11982693,0.18692595,0.21100417,-0.57950795,0.20892018,-0.49727315,0.03682235,-1.0420256,-0.39072388,0.4779259,0.2788459,0.31393054,0.2622149
all,-0.08097612,0.47218052,0.034165345,-0.4458809,-0.34683818,0.4835376,0.44559968,-0.3047751,-0.21716946,0.44236913,0.28579104,0.24782507,-0.37381458,0.06263128,-0.02162236,-0.36071426,-0.43638065,-0.29406616,0.67237103,-0.21961668,-0.18820757,0.5483567,-0.06851116,0.118828386,-0.48953992,-0.17717111,-0.46564963,0.19280504,0.43120623,0.043816194,-0.7219813,0.028656706,0.23490553,-0.15440208,0.11825113,-0.22757551,-0.18303852,0.05739534,0.31012532,-0.6658576,-0.0047902614,-0.060673386,0.26643142,-0.48308623,-0.094295345,0.66157573,-0.25379092,0.72357523,0.04966764,0.059645057,-0.7421912,-0.6572255,0.37653977,0.37336195,0.5697149,0.41694063,-0.03540641,-0.1787675,-0.19899736,0.1034303,-0.66868025,0.07693399,-0.42653024,0.26614988,0.11979017,-0.016578078,-0.66437757,-0.22749034,0.11676464,0.23247586,-0.044458285,-0.36487538,0.5648673,0.7896663,0.08618053,-0.5912734,0.38757783,-0.43115476,-0.47886866,-0.3031335,-0.3198002,-0.360795,0.5330803,0.22996567,-0.72413796,0.29830876,0.0115755275,0.16218361,-0.04224294,0.47409105,-0.047110364,-0.05293385,0.77631056,0.212033,0.10310198,0.0368307
out,-0.26368326,-0.51209295,0.17771363,-0.33246344,-0.2667057,-0.12872893,0.048191324,-0.05135658,-0.21044026,0.16306823,0.23344429,0.42223814,-0.20766854,0.51099324,0.3717299,-0.36666328,-0.39823133,-0.086454794,0.41075122,-0.6285408,-0.59192157,-0.20772673,-0.46953502,0.09027535,-0.36941415,-0.19726694,-0.61185455,0.47569108,0.4107714,-0.8227709,-0.6966413,0.35919926,0.42364424,0.12356456,0.03780879,-0.5591335,-0.022066202,0.35258815,0.36658734,-0.13707025,-0.45425543,-0.49297988,0.06450854,0.384689,0.033517487,-0.059996814,0.5013061,0.273781,0.13115811,-0.1471573,0.19236782,0.072008654,0.07770211,0.20803642,0.4907781,-0.0065566152,0.0076266527,-0.4989398,0.10362424,0.15941185,-0.24390157,0.17842536,-0.20380011,-0.5671904,0.8256173,-0.2497514,-0.20118038,-0.45313013,0.24233492,0.21717048,-0.13555588,-0.12369099,0.5073893,0.65890056,-0.30336037,-0.23436669,0.12265353,-0.6216845,-0.22806816,-0.037191503,-0.31271008,-0.36735284,-0.057691917,0.6701888,-0.22442476,-0.050855525,-0.5646889,0.35938144,-0.029592324,0.36311835,-0.32857773,-0.15137382,0.5412961,0.9939436,0.15525523,0.3521975
what,-0.52173364,0.44819903,0.39189902,-0.29568744,-0.9031698,0.5580806,0.2267546,0.13180737,0.34971625,-0.3573466,-0.3703156,0.048774876,-0.6104477,-0.20549932,0.06698299,-0.104586944,-0.085356936,-0.6200658,0.2198731,-0.4207502,-0.6049927,0.38186017,0.0045552943,-0.49401,-0.2168296,-0.06997979,-0.14689906,0.4895354,0.719199,-0.06979393,-0.51128805,0.47867912,-0.18874559,0.3793136,0.26827288,-0.12695888,0.5699955,0.07627267,0.09347502,-0.26083067,0.41647792,0.033187106,0.03742815,-0.8058566,0.07171896,0.38399416,0.077590704,0.22711618,-0.17066939,0.38769633,-0.5914061,-0.21416329,0.26116532,0.2009007,0.14065607,0.27470663,0.09652395,0.23820965,-0.12314738,0.53634197,-0.49264848,0.35981166,-0.29352063,-0.07423378,0.028928466,-0.15939444,0.14295185,-0.04505934,-0.103254974,0.40541497,-0.16441146,-0.45245314,0.17937814,0.03606561,-0.15639964,-0.07651818,-0.10003155,-0.62640494,0.25434342,0.14892639,-0.28652462,0.1674014,-0.3822642,-0.020868689,-0.43233234,0.19866516,-0.4665085,0.26093245,0.11079693,0.45537457,-0.76504105,-0.35820377,0.5018185,-0.28607565,-0.124695055,-0.036501322
know,-0.1026624,0.40901744,-0.5282312,-0.3463806,-0.35864174,0.33771813,0.37685782,-0.31018656,0.052013915,-0.66948354,-0.5340668,0.49525577,-0.25950947,0.4253118,-0.05645252,-0.15140593,-0.07879505,0.07400162,-0.012896996,-0.5461598,-0.80246204,0.14961313,-0.40794224,-0.3039419,-0.099366695,-0.055080917,-0.77617157,0.0284287,0.46673012,-0.21286637,-0.68826747,0.06766035,-0.981887,-0.14587945,0.32199872,0.12455541,0.55643755,0.7045182,0.36389512,-0.7198251,0.9021219,-0.33654162,0.66924703,-0.5520301,0.13241196,0.05188735,-0.18642017,0.5352218,0.21786812,0.5325568,-0.5898652,0.05928777,0.70176834,0.23013198,0.47940233,0.44291472,0.11604881,-0.3256514,0.29981846,0.2693821,-0.5159267,-0.40388682,-0.09442087,-0.6286659,-0.42322224,-0.15082158,-0.33280316,0.42060965,0.14165968,0.11993303,-0.21116851,-0.22666441,0.3467148,0.5813298,0.19885963,-0.6956364,0.055863045,-0.24099669,0.46088225,0.40193263,-0.041502625,-0.32893568,0.41187483,-0.14875847,-0.9058987,0.3808812,-0.53374016,0.090061404,-0.59756637,0.45904437,-0.8272805,-0.15522599,0.7161236,-0.3682951,-0.2924019,-0.015632033
like,0.033119317,0.059056308,-0.57074326,-0.21629293,-0.12162911,0.0778584,0.21096733,-0.3573773,-0.1522631,-0.118739836,-0.19831839,0.4927776,-0.41412497,0.57628417,-0.25231612,0.14340831,-0.038194522,-0.0672319,0.20937178,-0.3392614,-0.4016212,0.30602926,-0.704229,-0.07227513,-0.47602662,-0.44457906,-0.27623776,0.15129712,-0.11574069,0.62560695,-0.40414762,0.1604755,0.19713682,0.2989,0.27931452,-0.04166691,0.35754827,0.49215266,0.41730118,-0.413468,0.8960796,-0.3499385,0.2029142,-0.029368032,-0.6521026,0.23097175,-0.28950047,0.5502571,0.29048756,0.22318995,-0.07358494,-0.40806508,0.14751843,-0.0019251257,-0.16284877,0.32473105,-0.115618624,-0.39570642,0.35293257,0.08494596,-0.38028282,0.1834066,0.16827111,-0.38934112,-0.062548414,-0.18085007,-0.16567802,0.08168137,0.0713242,0.40818638,-0.23205708,-0.36951125,0.7208836,-0.057139196,-0.0142891705,-0.3412884,0.35946372,-0.31032324,-0.05305647,0.10890389,-0.4436098,-0.007963065,0.20496649,-0.09146125,-0.18614972,0.35638997,-0.19187546,0.21479642,-0.37235203,0.22254747,0.47703284,-0.28150213,-0.0871531,-0.08715528,0.39419997,0.24432206
good,-0.24665433,-0.13041902,0.5097909,-0.06464803,0.024304092,0.29765785,0.09829682,-0.3514322,0.12887084,0.009509668,0.12032228,0.11640006,-0.31275132,-0.5040444,-0.108713225,-0.66571784,-0.9547212,-0.9459406,0.615106,-0.01740633,0.018206269,0.22347872,-0.43345022,-0.076141,-0.34695348,-0.2545508,0.49043444,0.49046576,0.35165706,0.513339,0.063437864,-0.08202125,-0.24867931,-0.08336604,-0.17383134,-0.07102459,-0.17926516,0.5476869,0.31587708,0.097448885,-0.023235224,-0.53385633,-0.35086763,0.11337132,-0.32261774,0.04962695,-0.41077203,0.05277235,-0.16717306,0.29210553,-0.051654812,-0.05656097,0.14691463,-0.16340049,0.2075665,0.7540703,-0.13726988,-0.26154152,0.02493272,0.069881186,-0.60361075,-0.12739259,-0.21806034,-0.020566028,0.81940234,-0.26452544,-0.47340488,-0.8011134,-0.13157141,-0.092203885,-0.3928004,-0.10172148,-0.0552619,0.32958046,0.53683496,0.7478822,0.6233189,-0.042430095,0.15289599,-0.20809934,0.027388398,-0.20456612,-0.124934115,0.40803662,-0.58277833,0.4365595,0.52930665,0.13777098,-0.43700606,0.6196382,0.12869523,-0.36950067,0.13493182,0.08360314,-0.07446116,0.2875909
then,0.5908321,-0.4680389,0.079969764,0.075297266,0.30810887,-0.051404074,0.21385953,-0.07239105,-0.3645363,-0.4488755,0.014333397,0.23799184,0.28055415,0.11596888,-0.07332992,-0.3656545,-0.40695113,0.12668131,-0.05725326,0.031233758,-0.29395437,0.19558555,-0.44540262,-0.4478683,-0.074388385,-0.015715584,-0.30329233,-0.060901284,0.5782123,0.31670186,-0.29511347,0.16064173,0.07877284,-0.03814666,0.08156684,-0.40895438,0.15785721,-0.012079507,-0.015408784,-0.10182947,-0.0848584,-0.30530393,0.042988073,-0.16610293,-0.29888886,0.26775753,-0.061132208,0.7760406,0.33794424,0.28757176,-0.20279983,0.036739636,-0.15070844,-0.0987581,0.7093615,0.53072256,-0.17577681,-0.065300256,0.14347497,0.46228242,-0.51197255,0.44871184,0.022947444,-0.17735432,0.6483858,-0.44122174,0.26604134,0.23235732,0.6269332,0.22733697,-0.4883054,-0.8245713,0.20217231,0.25474423,-0.3242205,-0.39168355,0.15558821,-0.5126317,-0.4748329,-0.2084812,-0.42816174,-0.36584374,0.2563607,-0.00832735,-0.48386917,0.43786284,-0.110070154,-0.24937108,-0.46921045,0.09961253,-0.06828883,0.32141894,0.6622449,0.08125624,0.31579882,0.48497975
got,0.4093132,-0.7660551,0.36962205,-0.18443996,0.26495337,0.24713537,0.2389252,-0.5435724,-0.2849195,0.02385588,0.16693772,0.43478414,-0.18952242,0.39591408,-0.755062,-0.34535682,-0.14841887,0.0141629875,0.11276699,-0.16191699,-0.6797292,0.48379713,-0.06231799,-0.1143762,0.03860542,0.17019174,0.027294204,0.15369412,0.16383913,0.6881281,-0.2584931,0.34709,0.108895704,-0.15380543,0.46209064,-0.28487232,-0.2732621,-0.31300765,0.19744143,-0.48913363,0.14176379,-0.08968769,0.2033416,-0.16135268,-0.8287079,0.34756094,-0.24130213,0.45605105,0.07656742,0.13715222,0.037611924,-0.635702,0.37171778,0.49097577,-0.03985709,0.04812044,0.06182371,0.030997172,0.52512807,0.2821756,-0.25271627,0.37423676,0.047762882,-0.32587484,0.35219264,0.13368046,-0.3441155,-0.04163894,0.35473955,-0.03094084,-0.4510103,-0.46614522,-0.18870641,0.093647845,0.4147757,-0.10335851,0.17193007,-0.012227893,-0.17040098,-0.30998197,-0.28148594,-0.19239378,0.16286111,0.16964817,-0.1972037,0.37285012,-0.0047796518,0.27442035,-0.07329594,0.116097406,0.44481024,0.07402951,0.034576803,0.49435014,-0.033948973,0.47209212
come,0.11023913,-0.5543681,0.019664995,-0.15276256,-0.08644689,-0.47318017,-0.0989929,-0.43104202,0.29707125,-0.9103198,-0.47699505,0.42608348,0.23975523,-0.026012331,0.19746241,-0.092679955,-0.43628582,0.66751474,0.33424026,-0.41507298,-0.3567333,0.30281615,-0.29843953,-0.08304837,0.41808754,0.26131755,-0.20177376,-0.4478305,0.072781876,0.32081777,-0.086744756,0.45264447,-0.28838775,0.40142718,0.03802257,-0.35064662,-0.51895374,-0.24164328,0.1340164,-0.31457448,0.16385162,-0.45681688,-0.21984527,0.5060451,-0.44432396,0.6788477,-0.45149696,0.22520067,0.42407712,0.24985391,0.21507101,-0.051732555,0.32059702,0.1978125,0.095788285,0.091529794,-0.29873508,0.2164609,0.36866736,-0.11139314,-0.47406852,-0.4043284,-0.078575924,-0.21470039,0.40418696,-0.80189985,-0.23400524,0.24552917,0.6460926,0.5561323,-0.3552608,-0.2872473,-0.15286227,0.33217162,-0.42532092,-0.08055544,0.07245515,-0.53446424,-0.067141786,0.14909405,-0.35050347,0.00942076,0.65035623,0.5135454,0.6617275,0.035790652,-0.288253,0.15710518,-0.053776443,0.119328186,-0.27722734,0.048777536,0.65252966,0.46926424,0.15321076,0.37642407
was,-0.20782977,-0.76616204,0.10878993,0.08750256,-0.110542774,0.3359838,0.27399656,0.25219157,0.08160786,-0.020381555,0.123051025,0.033076555,-0.83924717,0.094508976,-0.13694501,-0.014882952,-0.42661256,0.23360641,0.6431509,-0.6017543,-0.564887,0.2537979,-0.14521635,-0.3290462,-0.21646139,-0.44411007,-0.27762005,-0.32195604,0.396497,0.14867263,-0.5789778,-0.060592923,0.13817534,0.022375036,0.6453902,-0.6832436,0.6448051,0.56475556,0.5136001,-0.036776595,0.20701328,-0.42971364,-0.2770642,-0.4978519,-0.3030854,0.46995237,-0.6472765,0.18492265,-0.13590136,0.58758533,0.18910936,-0.2924077,0.25582188,0.20385626,0.07309738,0.39033383,-0.2043556,0.17608877,0.035867877,0.29984444,-0.12670214,0.031678736,0.19210552,-0.42790008,0.6864438,-0.53178716,-0.38544858,0.017657384,0.38040465,0.46017385,-0.35714614,-0.045249883,0.3017977,0.31749547,0.15021552,0.104880735,0.21069604,-0.33766004,-0.66865987,-1.1533854,-0.35121283,-0.06266308,-0.12173651,0.48688263,0.18693782,0.7169218,-0.56356853,0.13621119,0.119986534,0.034433037,0.27050442,0.18659535,0.34581313,0.34218228,0.06305632,-0.00913679
its,0.083672106,-0.089214385,0.1302675,-0.32330886,0.17014323,0.04775759,0.43410572,-0.16447073,0.045708757,0.039727286,0.45325142,0.2662663,-0.28497267,0.24959774,-0.17582512,-0.4877089,-0.5883684,-0.4736399,0.46472394,-0.2187388,-0.115188606,0.3131888,-0.1728462,-0.27157086,-0.32991904,0.097782716,-0.27293375,0.054841246,0.43768108,0.27007642,-0.063802734,0.11923657,-0.12450165,-0.26965377,0.40682846,0.14588895,-0.295774,-0.06557803,0.281658,-0.19981065,0.15928525,-0.34749883,0.3881055,-0.30529785,-0.18040814,-0.19146544,-0.8156582,0.44076055,0.2908325,0.23530579,-0.021777347,0.020001393,0.6897814,-0.17415436,0.05486591,0.39973065,0.41938508,-0.3727088,0.62360615,-0.021293253,-0.28509602,0.10283643,-0.1372472,-0.21342845,0.11158858,-0.42535055,-0.11856952,-0.077862576,0.23323199,-0.16821665,-0.6138978,-0.7467847,0.31809658,0.17013453,0.8408623,-0.17247668,0.07995333,0.005961418,-0.47139272,-0.37855077,-0.18773896,0.2838847,-0.043419257,0.43723345,-0.23566462,0.30641314,0.03229738,-0.1133823,-0.19396253,0.18908389,0.25275004,-0.63759387,0.1917887,0.13965596,-0.27615446,-0.43946943
am,0.5400243,-0.5859779,-0.61215836,-0.20473358,-0.14284027,0.25376064,-0.015114889,0.18453442,-0.41280833,0.2187185,-0.007764831,0.55219144,0.27814287,0.21007958,-0.40531853,-0.18857223,-0.5970268,0.3845389,0.282786,-0.15305288,-0.4021453,0.014458977,0.12554877,0.11296931,0.46320647,-0.13230997,-0.14354268,0.14434798,0.53589684,0.2835678,0.02404045,-0.066288285,0.21256304,-0.059043974,0.25756338,-0.13940543,0.24158296,0.101828374,0.18938604,-0.5253978,-0.1908453,-0.19883439,0.43733704,-0.31309402,-0.35468736,0.4069383,-0.5484423,0.19786507,0.5204408,0.07917872,0.2032211,-0.35990036,0.26059082,0.24062502,0.19572033,0.03197725,0.30825114,-0.67513216,0.6644409,0.5671913,0.035302803,-0.17792416,-0.2965712,-0.37149072,0.4785924,-0.022022698,-0.2760785,0.15459664,0.15329687,0.4814281,-0.47957307,-0.44470984,0.1061299,0.36071673,0.19181685,-0.37510517,0.5941832,-0.4958941,-0.63477266,-0.56640285,-0.5328323,-0.119684905,0.22841763,-0.069981545,0.18778242,0.39599162,0.17584786,-0.20436582,0.0027287528,0.36449575,0.14106935,-0.66593456,0.15311554,0.43765873,-0.33867326,0.42535374
time,0.018856801,0.45142525,0.38217813,-0.111113146,-0.35595268,0.5854603,0.1582562,0.79057753,-0.16145608,0.011311419,-0.10152924,0.6050621,-0.20416246,-0.13200174,0.10088298,-0.20802833,-0.37961364,-0.60534865,0.08350223,-0.28633237,-0.33339173,0.35664234,-0.15888879,-0.14159432,0.16930725,-0.38131732,0.3219935,0.46339762,0.6902244,0.34583065,-0.37691206,-0.14176477,0.25399178,0.3283559,-0.10933439,-0.4072691,0.023226954,0.35354057,0.10933159,-0.55960596,-0.29869956,0.007825837,0.48954865,-0.37119922,-0.4376934,0.16245295,0.22620472,0.20118038,-0.25620246,0.5045205,-0.26466674,-0.38247952,0.074548766,0.49114883,0.30655223,0.24545023,0.38926625,-0.31751242,-0.04643511,0.37922597,-0.7931967,0.2942775,-0.03656625,-0.06378822,0.26033562,-0.044674546,-0.23798953,-0.45892948,0.05909121,0.21738939,-0.4715048,0.09971163,0.39527163,-0.14612328,0.42889982,-0.22316782,0.8564417,-0.18443531,0.38969007,0.55871433,-0.31755468,0.069613695,-0.08494526,0.33668104,-0.066024214,0.4745272,0.08099314,0.18810749,-0.44912508,0.69536746,0.45057976,0.04718872,0.3081962,-0.27649674,0.18599571,0.35870674
only,0.3254384,-0.535231,0.26780763,0.02309221,-0.26698694,-0.035171583,0.21830049,-0.20071495,-0.08568384,0.53448546,0.34014922,0.5406873,0.6320547,0.93025625,-0.9664827,-0.15866163,0.045475155,-0.124062926,0.27832657,-0.29196268,-0.18988807,0.30322945,0.05745074,0.18616225,-0.28544524,-0.37308884,-0.422671,-0.007601455,-0.14400573,0.53785,-0.5984481,-0.118079,0.6040735,0.027635552,-0.16622475,0.024350554,0.2050611,-0.13428545,0.13899595,-0.31325987,0.23483995,-0.570751,0.3247934,-0.44681153,0.32563263,0.36760026,-0.19263177,-0.12125166,0.83966136,0.6625718,0.085066125,-0.73249495,0.18260811,0.6302558,0.41416627,-0.49257773,-0.1827151,-0.7240704,-0.15033838,0.2907621,0.18894437,-0.15205225,-0.15681577,0.11063817,-0.22682047,-0.02717431,-0.51272935,0.022128105,0.029568255,0.30868888,0.09613857,0.096389346,0.43464756,-0.16185921,0.5751828,-0.74739355,0.5051731,-0.35384107,-0.023313254,-0.1761882,-0.37316054,-0.24831775,0.37187842,0.070932545,-0.11926182,0.43643188,-0.11371191,0.21200114,0.24191022,0.4478668,0.45448658,-0.33662033,0.09597049,0.108551554,0.02615416,0.43411556
day,-0.47298598,0.08041883,-0.069763154,-0.1012811,-0.28973943,0.41092157,0.4970406,0.11395135,-0.27589273,0.39934772,-0.26937768,0.15771312,-0.2542191,0.16453572,0.112837285,-0.48099017,-0.13811202,-0.47090572,0.5314442,-0.1989435,-0.36097205,0.42907363,0.28714666,0.016420303,-0.28458995,-0.27009284,0.2424158,0.14174321,0.04620201,0.5341783,-0.57298726,0.22170013,-0.17361335,-0.27762082,-0.3685268,-0.75125223,-0.27931696,0.5699462,0.47340235,-0.19670963,0.45323026,-0.06668269,0.033014085,-0.66340554,-0.399485,-0.028534075,0.45930654,0.12640698,0.3428011,0.39782628,-0.32417288,-0.045212153,-0.22349682,-0.23136523,0.20126976,-0.037138395,-0.8106721,-0.45354766,0.5060634,0.36392963,-0.16099826,-0.32753345,-0.2971711,-0.18597554,0.114183865,-0.2587713,-0.43414047,0.11362535,-0.4960651,0.14665791,-0.3816468,0.28607082,0.044655733,0.6514291,0.3076018,-0.21046239,0.838338,0.042932488,-0.2741144,-0.3691678,0.19638443,-0.42815486,-0.27165148,0.38072285,-0.12285946,0.4907475,-0.5726368,0.70965755,0.06337172,0.6151233,0.0056958944,-0.305593,-0.059369862,0.21417005,0.6658959,-0.2195748
love,0.6326971,-0.4093092,0.014273211,-0.21782096,-0.059139207,0.14205562,0.12748045,-0.25351048,0.2028477,-0.16162762,-0.18145844,0.26083043,-0.510002,-0.017195683,-0.47453994,-0.17748639,-0.5416777,-0.12850925,0.44546187,-0.23711455,-0.28423423,0.20391595,0.3290434,-0.16089544,-0.0069239438,0.5899575,0.2558893,0.71116036,0.65297174,-0.002760768,-0.07876991,0.3592259,0.0710866,0.45080674,-0.30700237,-0.24599317,0.007051885,0.28437886,0.5790326,-0.3616694,0.33623606,-0.27528137,0.5812779,-0.23382267,0.05987545,0.22125648,0.33750734,0.2825552,-0.13513377,0.60719764,-0.16830015,-0.04674004,0.37935644,0.34126437,0.053091988,0.005671208,-0.25596642,0.40596825,0.19769302,0.6263111,-0.39990467,-0.46095628,-0.09520039,-0.10677208,-0.23312901,-0.37258282,-0.48376203,0.17609838,0.22626731,0.024840087,-0.6506007,-0.059086308,0.33316335,0.34092745,0.41110486,0.14148693,0.380091,-0.2769244,-0.027402304,0.16633925,-0.48029777,-0.38517725,0.29617077,-0.09112224,0.06841634,0.12066489,-0.7781208,0.56645805,-0.27376103,0.4233827,-0.2839825,0.15751982,0.53136826,0.42953563,0.058863938,0.5631746
there,-0.49809027,0.34684736,0.62004685,-0.10441454,-0.5997324,0.059777975,-0.006139487,-0.60147214,-0.30061388,-0.2362426,-0.12551753,-0.033588182,-0.0060554445,0.0014625192,-0.029457636,0.029578462,-0.6355345,-0.46202454,0.4382208,-0.23298684,-0.11156446,-0.03915533,-0.29386854,0.043760687,-0.3068322,-0.06502752,-0.70168203,-0.24640118,0.44260412,0.12606785,-0.24879305,0.17413446,-0.11058964,0.59634066,0.23037091,0.107619554,0.27415317,0.70626485,-0.12571158,-0.17825595,0.10827315,-0.098016925,0.13691291,0.5713466,-0.4017291,0.10112222,-0.57147145,0.2078473,0.13827124,0.054631628,0.28327185,-0.10429077,-0.057111584,0.6231643,0.46245077,0.36733675,0.6954728,-0.37860277,0.41241038,0.2545138,0.028602734,0.2366983,-0.026990592,0.008098394,-0.09856506,-0.23659632,0.008553054,-0.16121842,0.1411924,-0.5207445,0.23900715,-0.2671367,0.6735508,0.33434218,0.09714274,0.28701925,0.2675389,-0.28545713,0.31575185,-0.32097638,-0.7473427,-0.14424962,-0.15639943,-0.38400447,-0.49423924,-0.13434029,-0.16435021,-0.1489343,-0.74558747,0.115830295,0.37919697,-0.40602332,0.19069254,0.63339126,0.41129878,-0.0695795
send,-0.60045946,-0.5857116,0.071492255,-0.41010416,-0.032569095,0.11391528,0.0007200986,-0.64391804,0.19631529,0.19401926,-0.3752022,0.22275862,0.3542852,0.16800863,0.239301,-0.3235322,-0.13589464,0.26730862,0.14587829,-0.045171425,0.16278678,0.9397696,-0.35267806,0.13631997,0.5976355,-0.46980676,0.10204693,0.57911426,0.24264121,-0.20165932,0.035177164,-0.08690588,-0.07981697,0.47123554,0.48012683,-0.25407234,-0.5877463,0.157044,-0.39045283,-0.40741995,0.21610986,-0.5301337,-0.074224666,-0.28060022,-0.48105738,0.620476,-0.34823483,0.2538641,0.19342378,-0.4239643,-0.35890326,0.038847834,0.3428777,0.43234986,-0.085868694,0.04315143,-0.14000674,0.35408437,0.12442775,0.44817448,-0.50829166,-0.23362392,-0.5466134,-0.42406198,-0.15657803,-0.09801679,-0.3873615,-0.84650326,0.37181318,0.3293437,-0.17300709,-0.10485885,0.13493289,0.56106615,-0.02287525,-0.008237302,0.56639266,-0.73404145,-0.38462716,0.01971265,-0.05980972,-0.35039622,0.45938408,-0.2178741,-0.33313796,0.59533364,-0.013892107,0.59978247,-0.127454,0.46161637,-0.026020244,-0.603362,0.21309073,0.32133934,-0.338739,0.7627325
he,0.13092116,-0.56968,0.6091081,-0.00391075,-0.033226978,0.0996879,0.45566985,-0.18349406,-0.62854666,0.3186317,0.39827913,0.45282882,-0.23753618,0.52728736,-0.38041115,-0.097773224,-0.08602792,-0.69098043,-0.072293594,-0.22673589,-0.7568351,-0.014398515,-0.36578476,-0.4892763,-0.5991412,0.0232003,0.4841982,0.1935553,0.4606541,-0.12653829,-0.28312796,0.41504696,0.04535177,-0.25508916,0.21011938,0.22814623,0.020028755,-0.037073173,-0.03644618,0.10920688,0.35161206,-0.34106055,0.10195646,-0.29343468,-0.55122066,-0.27612644,-0.09956741,0.42921922,0.28648573,0.31616244,0.11241938,-0.5756,-0.19402716,0.17898868,0.3247814,0.2135058,0.016854823,-0.32351997,0.4960751,0.22190744,-0.49508974,1.0229414,0.14550705,0.007168727,-0.042607874,-0.4784357,0.295084,0.084825754,0.82350606,-0.016764574,-0.26849753,-0.92576253,0.40302253,0.043559484,0.27392805,-0.7126841,0.43127894,-0.22548625,-0.78850996,-0.67186725,-0.48010466,-0.43064153,-0.5631361,-0.1355918,-0.81982255,0.062868506,-0.373807,-0.16159993,-0.6265048,-0.1925882,0.07152168,0.055042237,-0.37033224,0.25433242,0.30490607,0.22579902
want,-0.1891811,-0.0090171695,-0.32175636,-0.2247752,-0.44978112,-0.034883983,-0.037600465,-0.37683415,-0.11689566,-0.5807328,-0.93780655,0.33091164,0.07786579,0.40263355,-0.25744987,-0.2381024,0.0661481,-0.33711264,0.2673968,-0.490569,-0.26670647,0.13396014,-0.347826,-0.1371634,0.8446202,0.17503783,-0.12572086,0.37675804,0.055758595,0.34375548,-0.34158987,-0.028630331,-0.20931518,0.16095993,0.7050113,-0.59551084,0.5637825,0.46931678,-0.051070064,-0.61808413,0.21935475,-0.09866311,0.025454398,-0.08072601,0.0055625886,0.5694329,-0.08071071,0.4019568,-0.45616996,0.4398954,-0.084376216,-0.3196657,0.6786648,0.44311124,0.33495742,0.18211125,-0.38304776,0.23856902,-0.005571991,-0.20484702,-0.5173352,-0.06603666,0.052766457,-0.0142202675,0.17617565,-0.17408337,-0.011849217,-0.074909955,0.48777264,0.358177,-0.15930368,-0.4248852,-0.33284783,0.5150558,-0.4790677,0.11505173,0.38439623,-0.7018689,0.004871376,0.29769993,0.03629516,-0.16491994,0.6450167,0.26728538,-0.20949115,0.27682158,-0.29002047,0.52860105,0.6458082,0.19072731,-0.55314046,-0.31861734,0.43479675,-0.1467089,0.5076564,-0.02844213
text,-0.63256437,-0.22691175,0.3731923,-0.80202985,0.11542259,0.50380516,-0.074596524,-0.21241751,-0.50853705,0.13232408,0.23297006,0.402613,0.21676478,-0.18330279,-0.27467728,-0.061524563,0.3247719,0.071551435,-0.04156129,-0.11921494,-0.10654833,0.20967352,-0.6631654,-0.10488813,0.50841135,-0.429389,-0.63339007,0.22727892,0.22459558,0.17243941,0.03360139,0.05578582,0.6152071,0.27682373,0.5702089,-0.5690596,-0.15447396,0.12912433,-0.011927009,0.10277293,0.49382848,0.4769105,0.16855386,-0.13064344,-0.25378275,-0.20624016,-0.5059068,0.31168985,-0.60286915,0.2169205,-0.25092882,0.18208797,0.24630055,0.3358125,-0.025896914,0.07594955,0.16276747,-0.18820673,0.15094998,-0.2174455,-0.22129017,-0.024236523,-0.6119498,-0.6182538,0.30858624,-0.32351044,0.093933396,-0.08539261,0.5044639,0.43978652,-0.2821986,-0.15982057,-0.24066222,0.3180448,0.18781874,-0.5790418,-0.006789565,-0.289897,-0.42803395,0.16899306,0.2575591,0.35777065,0.6480353,0.07150659,-0.23130694,0.08606957,-0.43862212,-0.14517163,-0.46293622,0.1318171,0.32719243,-0.5302448,0.52995193,-0.4216613,-0.20271906,0.26095158
as,0.06470792,-0.12770696,-0.1089648,-0.26450488,-0.2121801,0.28868783,0.1791232,-0.8344585,-0.4227479,0.16905868,-0.34178698,0.2802136,-0.06174507,-0.24363789,-0.422308,-0.52481455,-0.7426831,-0.1464534,0.47828975,-0.13229412,-0.43005264,0.45284182,-0.07140651,0.16835175,0.051214956,0.39834934,0.29438806,0.52738327,0.03759242,0.7221843,-0.2887987,0.2608794,-0.21587673,0.6113637,-0.41033828,-0.3231695,-0.2586924,0.38641697,0.26085216,-0.059958875,-0.19507475,-0.0034229532,0.826169,-0.40723068,-0.48458317,0.35206348,-0.19433157,-0.08667317,0.11355861,0.20288518,0.24034372,-0.2680839,0.46069124,0.43493736,0.39670086,0.24580662,0.33899665,-0.25430706,0.40902185,-0.0688416,-0.52569544,0.30224207,0.13536687,-0.22306195,0.17984039,-0.41635588,-0.17033517,-0.5158824,-0.021489535,-0.52962446,0.06747244,-0.5204346,0.094108246,0.47260758,0.2560994,0.27516145,0.2884057,0.16003153,0.17286372,-0.5896523,-0.09037371,-0.384767,0.1374478,-0.06151443,-0.4276731,-0.0641298,-0.09710853,-0.04334532,-0.54467,0.29029053,0.4496143,-0.6542193,-0.24246842,0.764652,0.4234239,-0.011786059
txt,-0.30874717,-0.2112822,0.46210158,-0.13722594,0.35996538,-0.103378505,-0.12683581,-0.13229132,0.045304425,0.20415805,0.44911557,0.07931346,-0.059773423,0.6836149,0.13640788,-0.5088624,0.20872721,-0.31868377,-0.2468527,-0.060495175,0.009860396,0.3916549,-0.37673533,-0.1660701,0.07794821,-0.061436377,-0.7049117,0.5538331,0.11003134,-0.27494556,-0.39479855,0.068481885,0.8366878,-0.047232576,0.82501733,-0.22032204,-0.68070287,-0.08756618,-0.014847875,-0.4246658,0.40232968,-0.75044525,-0.33912003,-0.19169308,0.17478004,0.48503098,0.048374966,0.40689424,-0.15069503,0.15526688,-0.78775865,0.14915845,0.2848244,0.0029037744,0.30748272,0.39934325,-0.3304999,-0.43749845,-0.13844532,-0.08678459,-0.70939225,0.2075872,-0.41299418,-0.05867283,0.59240544,-0.21056704,0.2697,-0.1791106,0.6582407,0.10739849,-0.6900029,-0.53795606,0.6683371,0.20100841,-0.097738564,-0.15497558,0.3856209,-0.71774524,-0.38040793,0.16671243,-0.17923485,0.22006647,-0.02677776,-0.3239818,-0.03935434,0.48041642,0.061624885,0.10236515,0.14997026,0.0795798,0.45856285,-0.3013919,0.53677505,0.17331856,0.11813837,0.47868848
one,-0.053645447,-0.33571392,0.15597343,0.15727606,0.17976129,0.3731388,0.5400201,-0.17590651,-0.23360151,0.27089018,-0.026701963,-0.03826508,-0.22960621,0.39776534,-0.576251,-0.055979937,-0.32568687,-0.1478503,0.04852443,-0.4483673,-0.04396339,0.28101078,-0.13267356,-0.40518796,-0.11519927,-0.46032387,0.01850915,-0.6484364,0.010336205,0.23186435,-0.815356,-0.42041653,-0.015238509,0.1893548,-0.270779,-0.26625186,0.31009483,0.6649379,0.8088796,-0.16064818,0.43487877,-0.10784055,0.55380833,-0.12577347,-0.2835772,-0.072677135,0.32720926,0.14340019,0.60711735,0.47682086,0.27769879,0.023520183,-0.38351664,0.13145165,0.3941524,0.35173854,-0.3594617,-0.6665596,0.060743462,-0.14172839,0.15170045,0.58935106,-0.09095504,-0.10092038,0.3021087,-0.30647114,-0.23046447,0.06104778,0.18446946,0.13179532,0.11259244,0.32828555,0.13492636,0.27528766,0.28886095,-0.62918335,0.34322485,-0.3061509,0.21162044,-0.50389457,-0.47037923,-0.39799672,-0.043529272,0.37475973,-0.4410501,0.2902859,-0.3020165,-0.19050601,-0.4237289,0.627631,0.10967605,-0.23356394,0.33426902,0.21919145,0.4789733,0.007274717
going,-0.43664634,-0.23542419,-0.1110754,-0.39576876,-0.4384187,0.022902042,-0.1332271,0.08277936,-0.179149,0.5171596,-0.037196323,0.3110457,-0.101961166,0.22443834,0.24491622,-0.5795233,0.20474894,-0.5985507,0.09590697,0.21293634,0.13054259,-0.3353167,-0.65842813,-0.22511292,-0.35715485,-0.35780233,-0.64219046,0.28081644,0.2702883,0.05808478,0.045269087,-0.5284551,0.10596621,0.3929064,0.22691874,-0.24833402,0.5193923,0.056520935,-0.06640697,-0.46209443,-0.12608093,-0.36940634,0.42882374,-0.053985804,0.0077812076,0.3457349,-0.5659536,-0.041263834,0.3189236,0.09465431,-0.3657819,0.27377865,0.5183202,0.37510836,0.019527879,0.047789156,0.35177475,-0.09810752,0.10278389,-0.30677167,0.1214456,0.29432324,-0.5295532,-0.41147947,0.5495575,0.12855777,-0.13107948,-0.10422692,0.18961984,0.32013854,-0.42725646,-0.6483978,0.19806375,0.53880805,-0.26391637,-0.041998386,0.36805317,-0.65363145,-0.2140575,0.25303385,-0.17220047,0.044638775,0.39805895,-0.15545833,0.025100261,0.17184003,0.18147421,0.06746291,-0.009150717,0.49391377,-0.61441565,-0.48927248,0.6010892,0.49584,0.031641155,0.2359887
by,-0.27673706,-0.09839403,0.7689563,-0.10738594,-0.30543697,0.21738358,0.24891648,-0.04264161,-0.34865215,0.11713924,0.6626538,0.12839764,-0.31858957,0.47295633,-0.36741892,-0.0012524351,-0.2821235,-0.49747825,0.4647974,-0.027646154,-0.24622168,0.3159669,-0.07336786,-0.58479077,0.16431014,-0.12921327,-0.06775902,0.01645971,0.22011574,0.1385843,-0.36780185,0.06994628,0.5373306,-0.08490525,0.3326249,0.036728162,-0.63662565,-0.13661176,0.31969392,-0.09344664,0.6197573,-0.29946345,0.26191413,0.32159048,-0.5411764,0.14048135,-0.07982524,0.35641366,0.59138614,0.29263693,0.22074349,-0.5305917,0.109708264,0.4190808,0.23722023,0.103191376,-0.3613614,-0.1263193,0.57052064,-0.0059492886,-0.24479079,0.40149346,-0.25765568,-0.11429791,-0.20518641,-0.8185346,-0.24969433,-0.25018778,0.15088862,0.119248904,-0.27654108,-0.11711405,0.1944816,0.23894829,0.4317725,-0.23839724,-0.09097548,-0.07933977,-0.122171596,-0.101286724,-0.35008338,-0.105092615,0.2070544,0.6088496,0.09208888,0.18776563,-0.11142173,-0.2144497,-0.3095609,0.027642071,0.61629975,-0.32918778,0.39985898,0.09515836,0.42161304,-0.007312089
,0.3274796,-0.40416026,-0.35608765,-0.34538645,0.6010008,0.030735279,0.009308472,-0.5329648,-0.4987602,-0.49638206,-0.29121795,0.16961972,0.03644733,0.29769802,0.11406712,-0.60750234,-0.1273769,-0.16643664,-0.011889227,0.14420782,0.0787219,-0.052547947,-0.22737171,-0.18431064,-0.012085319,0.056954756,-0.31600678,-0.4408429,-0.11984928,0.33594596,-0.46553725,0.21981311,-0.20439136,-0.39586332,-0.024439672,-0.19331992,-0.23778184,-0.30737814,-0.035872757,-0.8289107,-0.042508453,-0.39034808,0.018668339,-0.3835147,-0.33148125,0.6298687,-0.24371126,0.4524865,0.30312115,0.0093396725,-0.021888256,0.19608572,0.29416746,0.13634673,0.54532033,0.63610935,-0.42326623,0.1560466,0.24814944,-0.16002205,-0.5685978,-0.24827762,0.27415568,0.029216856,0.2980464,0.08024372,-0.05967344,0.3347599,-0.12814029,0.27045754,-0.14968891,-0.60684353,0.32592815,0.10050136,-0.105457425,0.14416151,-0.1974347,-0.32702512,-0.17467184,-0.061779194,-0.11530186,0.07698603,0.24337456,-0.06832068,-0.010447871,0.096087545,0.1433282,0.008275088,-0.044931803,0.6390911,-0.120666325,0.20918909,0.20042211,-0.32036862,0.05754645,0.3913361
i'll,0.2100792,-0.25520822,0.7723321,-0.40929887,-0.4901513,0.080553666,-0.257738,-0.11297889,-0.25507826,-0.049160004,0.0533262,0.20497489,0.31299224,0.090483606,-0.23401253,0.32360336,-0.20858753,-0.34309447,0.18163487,0.55885756,-0.2088845,0.1562252,-0.32995155,0.17788346,0.07909823,0.22441463,-0.35677075,0.2572657,0.19687416,-0.10261214,0.38282752,0.026573122,0.3160282,-0.513564,-0.202862,-0.3285161,-0.0031471476,-0.067881644,0.13217077,-0.13135183,0.26795864,0.19628698,-0.22114646,0.6436326,0.32474345,0.0022691041,-0.34012294,-0.14626454,0.21311077,0.7290976,-0.19618556,-0.31165776,-0.25468212,-0.0790109,0.11690506,0.09240907,0.33004534,-0.12226346,0.37215334,0.15277342,0.3687666,0.34125245,-0.7660498,-0.19957517,0.4536815,-0.42882088,0.079049714,-0.067734115,0.40650624,0.19272433,-0.24798392,-0.008093957,-0.5335114,-0.050913908,0.13011166,-0.14383736,-0.4732552,-0.60656774,-0.18580368,0.38885093,-0.5250752,-0.31597573,0.59168696,0.10770029,-0.40717435,-0.0054786205,0.108056486,-0.003758967,-0.5735228,-0.07393676,-0.05733811,0.0060035363,0.3741299,0.51413834,-0.06317957,0.33711532
need,0.08638223,-0.31194142,-0.55261683,-0.4643594,-0.20665294,-0.17632696,-0.095073305,-0.45436817,0.46124342,-0.08238891,-0.88504744,0.10661477,0.24902904,0.4544516,-0.64187443,-0.49992862,-0.61506736,-0.5336954,0.22994182,-0.5919112,-0.25199112,0.4531592,-0.39809275,0.21274537,0.81495655,-0.1279631,-0.14440572,0.2144201,0.1756156,0.16435479,-0.21379682,0.55221146,-0.19214728,0.37638366,0.2625103,-0.50468373,0.15382637,0.5349714,0.21610446,-0.28055102,0.580961,-0.2112423,-0.05679983,0.19505091,-0.16799985,0.39952746,-0.108915165,0.10460932,-0.06563003,0.5824356,0.025800869,-0.25149813,0.5615876,0.4864027,-0.308808,-0.23469603,-0.047128722,0.33902416,0.25554636,0.09439461,-0.03732802,-0.5806232,-0.3595628,-0.075407326,0.25576815,-0.1802544,-0.32369208,-0.077399954,0.10079579,-0.13061267,-0.28521764,-0.24044229,0.13247672,0.18067588,0.07535778,-0.15198895,0.45459867,-0.6509443,-0.057250224,0.18123227,-0.35380277,0.03941951,0.35010657,0.1454478,-0.085191935,0.29297927,-0.5763336,0.36401695,0.28561485,0.32121795,-0.39489943,-0.48472923,0.047605366,0.0143265985,0.28774387,0.17382477
home,0.25678515,-0.34159535,-0.11618057,0.28379363,-0.26229244,-0.10744756,-0.25355947,-0.5872497,-0.027821422,-0.01977355,-0.0200686,0.22869334,0.51894146,-0.13692153,-0.31442696,-0.20050302,-0.2278604,0.24409884,0.13977319,0.5150957,-0.096659735,0.5721152,-0.50519764,0.057329252,-0.22907111,0.027657256,-0.23229071,-0.1994493,0.4378852,0.69301885,0.34914994,0.192994,0.19585778,-0.22263232,-0.24642108,-0.19461049,0.054779276,-0.34964854,0.34656247,-0.43211228,0.028501913,-0.3116542,-0.36672333,0.021951567,-0.31775934,1.1619858,-0.25780636,0.26453865,0.7092687,0.47858393,-0.17413118,-0.38896456,0.22311588,0.12224378,0.13953573,-0.18409517,-0.57780004,-0.1409773,-0.13652037,0.021669418,-0.22222823,0.18523715,-0.15902558,-0.118844755,0.4593976,-0.14706269,-0.13686822,-0.2778681,0.5204852,0.25874037,-0.11410023,-0.5409993,-0.15486258,0.032659948,-0.1298917,-0.07594249,-0.11675407,-0.8799928,-0.35526404,-0.22896734,-0.6982013,-0.12710053,0.58684444,0.38524485,0.013453342,0.2574443,0.27691466,-0.2683582,0.35121796,0.12277642,-0.10429438,0.2509019,0.55920315,0.6253715,-0.08291571,-0.016074121
about,-0.2387654,0.07106952,0.25990644,-0.35707408,-0.20869066,0.31764758,-0.059465997,-0.20582414,-0.5834847,-0.40032518,0.2887894,0.6223433,-0.56718034,0.21955307,-0.041672483,0.011860281,-0.27684402,-0.63409203,0.97760344,-0.40322316,-0.12452802,0.23484306,-0.3450683,-0.09927087,-0.37994087,0.41694745,-0.629689,0.1852782,0.40973073,-0.43876955,-0.80887485,0.33247748,0.23765026,0.023895152,0.3014682,0.16485861,-0.09775659,-0.05597098,-0.47589326,-0.54996157,0.16027826,-0.06649927,0.20250265,-0.33080986,-0.51482844,0.4281317,-0.48408017,0.348346,0.44902837,0.32251868,-0.21168631,-0.25046074,0.24926417,-0.13787864,0.4662981,-0.09172716,0.48023444,-0.34949842,-0.18994683,-0.19769396,-0.37361404,0.1690695,-0.19135474,-0.093302265,-0.078486584,-0.51996493,-0.30752766,0.22746447,0.30248252,0.009799413,-0.14488396,0.0008274019,-0.24975249,0.2880207,0.657132,0.15845174,0.05308941,-0.49859816,-0.10315466,-0.1847195,0.20340438,0.47502118,0.006208524,0.039796956,-0.005676985,0.35367483,-0.6935939,-0.21721089,-0.09057735,0.09866678,-0.5229549,-0.66436565,0.7103437,0.19289206,-0.025685817,-0.11986573
r,0.41136846,0.19285232,-0.15709828,-0.049360693,-0.3176623,-0.055849195,0.38905624,-0.011915559,-0.3298242,-0.09559758,0.6077486,0.010367781,-0.41012612,0.5453854,0.34437504,-0.3454837,-0.35357052,-0.27709994,-0.5454186,-0.27184153,-0.28091758,0.17902751,-0.39134175,-0.2957005,-0.80449426,-0.14181837,-0.39285553,0.48941725,0.31651497,-0.2853934,0.17177197,0.54123735,-0.09634648,0.32545325,-0.50427556,0.018163543,-0.502679,0.36282638,0.19948737,-0.07609129,0.03791577,-0.39088732,0.22115953,-0.46418628,0.10446377,0.43724173,-0.060710803,-0.5574247,0.59045076,-0.07521272,0.058817655,0.18168007,-0.21910517,-0.5566752,0.7384238,0.36382172,-0.76630545,-0.76629275,0.33958766,0.48224935,-0.1524145,0.103511676,0.25141466,-0.21121642,-0.10698524,-0.2203795,-0.40591222,-0.3051552,0.10817978,-0.08628932,0.5600758,-0.2556787,0.2534957,-0.07427937,0.08261903,-0.69940674,-0.28811306,0.012054011,-0.44663024,0.5031568,-0.6323753,-0.4926824,-0.21281254,0.36784217,0.15718913,0.18899694,-0.046990573,0.13947597,-0.30226278,0.46702808,0.20258245,0.11718601,0.21098316,0.2898484,-0.085976765,0.514617
lor,0.684853,-0.5495522,-0.8975761,0.21762204,0.25481227,-0.0869955,0.28690737,-0.28983688,-0.18083134,-0.32526374,-0.20130613,0.020718306,0.04270067,0.09881756,-0.54280394,-0.13317186,0.031765454,0.047428716,-0.2732268,-0.35845444,-0.088077895,0.07663043,0.25869232,-0.010886699,-0.20577401,0.27965927,-0.01969288,-0.06539687,0.74152064,0.5902901,0.19000116,0.34388697,-0.1682013,0.21343508,-0.3827165,-0.51250625,0.10566926,0.25418183,0.38198572,-0.09277518,0.35159558,-0.2138356,0.34416643,-0.5351392,-0.08503565,0.06748393,-0.1347442,-0.16505113,0.2560839,0.3919409,0.31640702,0.119595945,-0.243646,-0.24816982,0.22362962,0.5153197,-0.6644714,-0.5736637,0.22970238,0.09412435,-0.19486389,0.5111604,0.2240836,-0.17722385,0.31350532,-0.13879776,-0.049845386,0.29147583,0.21981046,-0.15667942,-0.19342335,-0.5387345,0.47017974,0.1263153,0.0404557,-0.4010512,0.3428998,-0.34403086,0.06445736,-0.30240464,-0.26717994,-0.2918514,0.17917141,0.11771239,-0.2200249,-0.26105377,-0.1488251,-0.5376476,0.12699313,0.22169328,0.11569296,0.13772516,0.44781154,0.32013863,-0.18527603,0.22073197
sorry,-0.0070428103,-0.13022478,-0.7132889,-0.036824945,-0.16515593,0.6183324,0.013183758,-0.10187961,-0.7189305,0.07513712,-0.09646599,0.015506756,-0.03570162,0.2555611,-0.40005854,-0.6169498,-0.09641419,-0.014940862,0.18141074,-0.08989784,-0.51839477,-0.2518475,0.06348753,-0.36509722,-0.25214264,0.20460579,-0.18305406,-0.07272327,0.61607957,0.12073515,-0.118863165,0.13778603,0.34365058,-0.026349843,0.33197308,0.13231137,0.45040965,-0.13194975,0.37913755,0.36602682,0.3228783,0.10976167,0.5715117,-0.3014962,-0.16554204,0.1832327,-0.24050474,-0.1394286,0.6004325,0.21641245,0.6253537,-0.2901532,-0.049776632,-0.06634535,-0.07212075,-0.10929159,0.20969509,-0.5434782,-0.019708768,0.30318606,-0.12811542,0.3772477,-0.009096451,-0.34260035,0.056511275,-0.0122906715,-0.061512433,0.29515365,-0.09119684,-0.10397944,-0.25870708,-0.49863693,0.19885613,0.03067492,0.3721648,-0.13137704,0.17213148,0.011768132,-0.41091356,-0.30709773,-0.36370543,-0.0067279786,-0.0732639,0.0011170655,0.1594804,0.1597854,-0.28237212,-0.38251165,-0.17463338,-0.0076971278,0.12188856,-0.12281242,0.25543368,0.059437037,-0.26194096,-0.0849107
stop,-0.5652808,-0.53837144,0.3525744,-0.61135757,0.32013202,-0.2582904,-0.28693238,-0.50201106,-0.026195154,0.4762887,0.09369138,-0.0858589,0.1616266,0.3220789,0.09493512,-0.4892996,-0.16152608,-0.47760394,-0.10252171,-0.018695965,0.66065156,0.31187257,-0.79777086,-0.4364161,0.5160399,-0.49170625,-0.32120898,0.68856394,0.116360545,-0.21804005,-0.29544267,0.14341405,0.75806355,0.4776356,0.4175799,-0.044986963,-0.3450718,0.098374784,-0.5526383,-0.22530247,0.43000352,-0.8995923,-0.12651049,-0.22699577,0.12493825,0.39496258,-0.33379018,0.2965974,-0.14044121,-0.48206854,-0.08389814,0.83764076,0.15601346,0.038190316,0.44136584,0.068546005,-0.19048199,-0.082397,-0.044573426,0.6737102,-0.46881288,0.43620127,-0.40838528,-0.20773008,0.2842718,-0.08223347,0.16188124,-0.7798704,0.32524574,0.14522775,0.09652562,-0.16823016,0.76237535,0.18401068,0.07344319,-0.08068223,0.42635193,-0.6927963,-0.76450825,0.27823538,-0.039408684,0.21829148,-0.1887563,-0.18554667,-0.21873295,0.21361676,-0.3382914,0.37229565,-0.18474263,0.3277257,0.65223664,-0.6403706,0.19499283,0.24110582,0.027852098,0.39190912
still,-0.19339897,-0.6987622,-0.339832,-0.08076398,-0.5755828,-0.16078287,0.31311634,-0.49874535,-0.22157668,-0.095860824,0.18464486,-0.26208115,0.24222037,0.16951121,-0.42256537,-0.57640254,-0.42296785,-0.5392572,-0.26028433,-0.12477577,-0.26181966,0.39428678,-0.21263869,-0.12653507,-0.08630269,-0.39021653,-0.0022921208,-0.21660767,0.33018962,0.09026286,-0.3065308,0.1909617,0.09320745,0.63009435,0.27611175,0.020014374,0.15409067,0.4572719,-0.041502364,0.23244734,0.7301394,-0.28678906,0.39532363,-0.19021198,-0.10394147,-0.21775737,-0.41810435,0.09260798,0.46338746,0.46478972,0.5008648,0.3339001,0.34464827,0.22394684,0.14654593,0.037046053,-0.15171814,-0.084711306,0.067464665,0.33390802,0.06400447,0.43504858,-0.6115342,-0.020760491,-0.22665699,-0.10360285,-0.27428108,0.1065391,-0.027823012,0.21794233,0.011888459,-0.48290193,0.23259479,0.362555,0.030366719,-0.4703261,0.5124476,-0.55101526,0.2156499,-0.05567819,-0.5740771,-0.27686432,0.018817276,0.47287518,-0.26365873,0.22022423,-0.3144638,-0.44765666,-0.21577798,-0.09933461,0.43593228,0.042990465,0.09854351,-0.09265253,0.24635857,0.6181673
see,-0.20648062,-0.40991366,-0.12659521,-0.29118422,0.0162598,0.07551229,0.14920637,-0.24361315,-0.24167632,0.24405143,-0.72821856,0.04392504,-0.04922401,0.7818942,-0.015972704,-0.097962916,-0.48422146,-0.071618825,0.4366811,-0.38448495,0.19457841,0.20687555,-0.4874426,0.010896299,0.26311857,-0.15321107,-0.08150907,0.14809649,-0.0018327087,-0.12669303,-0.16072029,0.115953,-0.31718898,0.4803518,0.46747252,-0.51682425,0.015719011,0.21378596,0.38214296,-0.45261443,0.5502105,-0.30841932,-0.1432013,0.16753829,-0.21512282,0.17432044,0.29176483,0.049601972,0.08781941,0.38762844,-0.32844126,-0.11862065,0.3701626,0.40566945,0.3292282,0.165526,-0.42985976,0.2515506,0.21813536,0.23446646,-0.08729397,-0.08308702,0.06757857,-0.27220857,0.5458082,-0.38542685,0.032757435,0.19361192,0.081100225,0.4290336,-0.30047286,-0.09017667,0.5019171,-0.11072655,0.39941275,0.07845147,0.2951992,-0.9147152,0.12472323,-0.00434269,-0.33651954,-0.08927291,0.67969245,0.47619945,0.051054306,0.21057989,-0.53503,0.0711724,-0.2442898,0.22113308,-0.7059784,-0.31362298,0.2761116,-0.1762655,0.06292549,0.3105452
n,0.19955513,-0.40697885,0.17186978,-0.030050471,-0.24926788,-0.16066055,0.402797,0.05268262,0.26497024,0.2517839,0.6041584,0.36386487,-0.47154528,-0.1257762,-0.5502325,-0.28643143,0.036990315,0.15686634,0.12235829,-0.213881,-0.48357984,0.24450022,0.077799365,0.21617728,0.08490951,0.6133431,-0.30324286,0.5539795,0.6718677,0.5416052,0.09514254,0.6635374,0.51952803,0.513553,0.34718165,-0.70434296,-0.6561647,-0.22652018,0.18326257,0.004049331,0.3196417,-0.21970773,0.62969375,-0.37152183,-0.118107446,0.14925706,0.061618112,0.24773741,0.08152891,0.16660628,0.38669705,0.022950508,-0.0954155,0.13076803,0.38917923,0.08718396,-0.49469173,-0.015379189,0.9675162,0.8669895,-0.3656367,0.40864557,0.07300946,0.021627516,0.5436661,0.10596778,-0.070748396,0.3479329,0.07927121,0.12397753,0.21376605,0.21272413,-0.09476182,0.5172397,-0.031330645,-0.64495754,0.21326564,0.025680304,-0.35426772,-0.366892,-0.2516564,-0.19379272,0.13746367,-0.08759411,0.013060987,-0.16948695,-0.23692901,0.33088243,-0.10394868,0.14024706,-0.001156603,0.6323482,0.37702107,0.5588263,0.079772025,0.287768
back,-0.20905823,-0.22476465,0.22888368,0.2880895,-0.56692874,0.30169788,-2.9890332e-05,-0.31980768,-0.34991294,-0.1067404,0.25210226,0.36289907,0.30299786,0.3021232,0.0831717,-0.3384027,0.35116813,0.49623287,-0.05474052,-0.2291952,-0.44132107,0.61133254,-0.70851874,-0.27614474,0.10143119,-0.39143813,-0.27136266,0.31535962,0.13466778,-0.03404732,0.36541796,0.41106087,0.31466416,0.28185788,0.50718826,-0.31174994,-0.21443027,-0.2961021,0.60778636,0.14999259,0.27094367,-0.28045017,-0.23135579,0.15657477,-0.44909713,0.2598371,0.07969053,-0.1676752,0.5510908,0.251937,-0.3646653,-0.28883812,-0.09903043,0.3584097,-0.22876072,-0.024106562,-0.40236706,-0.1264267,-0.08277612,0.28783733,-0.0014467034,0.2807874,-0.2604882,-0.52499324,0.32904813,-0.23888595,0.09461129,-0.42340726,0.12083702,0.45038334,-0.74586433,-0.39719287,-0.068763666,-0.0963569,-0.012359761,-0.31215525,0.08672695,-0.37312728,0.17708904,0.29236886,-0.057004362,-0.3261618,0.40516335,0.31571507,0.04998438,0.37027478,0.004683502,0.009630442,-0.20279694,0.09763816,0.30305788,-0.12303859,-0.039528687,-0.16875154,-0.25389653,0.21972634
